digraph Tree {
node [shape=box, style="rounded", color="black", fontname=helvetica] ;
edge [fontname=helvetica] ;
0 [label="duration <= 208.0\nentropy = 1.0\nsamples = 35810\nvalue = [17928, 17882]"] ;
1 [label="nr.employed <= 5099.0\nentropy = 0.7\nsamples = 14161\nvalue = [11207, 2954]"] ;
0 -> 1 [labeldistance=2.5, labelangle=45, headlabel="True"] ;
2 [label="duration <= 123.2\nentropy = 0.9\nsamples = 3061\nvalue = [925, 2136]"] ;
1 -> 2 ;
3 [label="duration <= 62.5\nentropy = 1.0\nsamples = 885\nvalue = [514, 371]"] ;
2 -> 3 ;
4 [label="entropy = 0.0\nsamples = 125\nvalue = [125, 0]"] ;
3 -> 4 ;
5 [label="poutcome_failure <= 1.0\nentropy = 1.0\nsamples = 760\nvalue = [389, 371]"] ;
3 -> 5 ;
6 [label="poutcome_nonexistent <= 1.0\nentropy = 1.0\nsamples = 639\nvalue = [279, 360]"] ;
5 -> 6 ;
7 [label="housing_yes <= 1.0\nentropy = 0.7\nsamples = 227\nvalue = [42, 185]"] ;
6 -> 7 ;
8 [label="cons.price.idx <= 93.6\nentropy = 0.4\nsamples = 157\nvalue = [11, 146]"] ;
7 -> 8 ;
9 [label="education_basic <= 0.9\nentropy = 0.2\nsamples = 151\nvalue = [5, 146]"] ;
8 -> 9 ;
10 [label="day_of_week_wed <= 1.0\nentropy = 0.1\nsamples = 148\nvalue = [2, 146]"] ;
9 -> 10 ;
11 [label="entropy = 0.0\nsamples = 144\nvalue = [0, 144]"] ;
10 -> 11 ;
12 [label="cons.conf.idx <= -29.1\nentropy = 1.0\nsamples = 4\nvalue = [2, 2]"] ;
10 -> 12 ;
13 [label="entropy = 0.0\nsamples = 2\nvalue = [2, 0]"] ;
12 -> 13 ;
14 [label="entropy = 0.0\nsamples = 2\nvalue = [0, 2]"] ;
12 -> 14 ;
15 [label="entropy = 0.0\nsamples = 3\nvalue = [3, 0]"] ;
9 -> 15 ;
16 [label="entropy = 0.0\nsamples = 6\nvalue = [6, 0]"] ;
8 -> 16 ;
17 [label="job_admin. <= 0.0\nentropy = 1.0\nsamples = 70\nvalue = [31, 39]"] ;
7 -> 17 ;
18 [label="education_professional.course <= 0.5\nentropy = 0.4\nsamples = 22\nvalue = [20, 2]"] ;
17 -> 18 ;
19 [label="entropy = 0.0\nsamples = 17\nvalue = [17, 0]"] ;
18 -> 19 ;
20 [label="marital_married <= 0.5\nentropy = 1.0\nsamples = 5\nvalue = [3, 2]"] ;
18 -> 20 ;
21 [label="entropy = 0.0\nsamples = 2\nvalue = [0, 2]"] ;
20 -> 21 ;
22 [label="entropy = 0.0\nsamples = 3\nvalue = [3, 0]"] ;
20 -> 22 ;
23 [label="duration <= 100.7\nentropy = 0.8\nsamples = 48\nvalue = [11, 37]"] ;
17 -> 23 ;
24 [label="age <= 24.9\nentropy = 0.2\nsamples = 30\nvalue = [1, 29]"] ;
23 -> 24 ;
25 [label="entropy = 0.0\nsamples = 1\nvalue = [1, 0]"] ;
24 -> 25 ;
26 [label="entropy = 0.0\nsamples = 29\nvalue = [0, 29]"] ;
24 -> 26 ;
27 [label="previous <= 1.0\nentropy = 1.0\nsamples = 18\nvalue = [10, 8]"] ;
23 -> 27 ;
28 [label="entropy = 0.0\nsamples = 6\nvalue = [0, 6]"] ;
27 -> 28 ;
29 [label="day_of_week_tue <= 0.5\nentropy = 0.7\nsamples = 12\nvalue = [10, 2]"] ;
27 -> 29 ;
30 [label="entropy = 0.0\nsamples = 10\nvalue = [10, 0]"] ;
29 -> 30 ;
31 [label="entropy = 0.0\nsamples = 2\nvalue = [0, 2]"] ;
29 -> 31 ;
32 [label="job_admin. <= 1.0\nentropy = 1.0\nsamples = 412\nvalue = [237, 175]"] ;
6 -> 32 ;
33 [label="job_admin. <= 0.0\nentropy = 1.0\nsamples = 324\nvalue = [157, 167]"] ;
32 -> 33 ;
34 [label="housing_yes <= 0.0\nentropy = 1.0\nsamples = 274\nvalue = [157, 117]"] ;
33 -> 34 ;
35 [label="age <= 40.5\nentropy = 0.6\nsamples = 89\nvalue = [75, 14]"] ;
34 -> 35 ;
36 [label="job_services <= 0.0\nentropy = 0.9\nsamples = 44\nvalue = [31, 13]"] ;
35 -> 36 ;
37 [label="loan_yes <= 0.3\nentropy = 0.7\nsamples = 37\nvalue = [30, 7]"] ;
36 -> 37 ;
38 [label="day_of_week_fri <= 0.5\nentropy = 0.4\nsamples = 29\nvalue = [27, 2]"] ;
37 -> 38 ;
39 [label="entropy = 0.0\nsamples = 22\nvalue = [22, 0]"] ;
38 -> 39 ;
40 [label="nr.employed <= 5046.9\nentropy = 0.9\nsamples = 7\nvalue = [5, 2]"] ;
38 -> 40 ;
41 [label="entropy = 0.0\nsamples = 5\nvalue = [5, 0]"] ;
40 -> 41 ;
42 [label="entropy = 0.0\nsamples = 2\nvalue = [0, 2]"] ;
40 -> 42 ;
43 [label="euribor3m <= 0.8\nentropy = 1.0\nsamples = 8\nvalue = [3, 5]"] ;
37 -> 43 ;
44 [label="entropy = 0.0\nsamples = 5\nvalue = [0, 5]"] ;
43 -> 44 ;
45 [label="entropy = 0.0\nsamples = 3\nvalue = [3, 0]"] ;
43 -> 45 ;
46 [label="duration <= 92.2\nentropy = 0.6\nsamples = 7\nvalue = [1, 6]"] ;
36 -> 46 ;
47 [label="entropy = 0.0\nsamples = 6\nvalue = [0, 6]"] ;
46 -> 47 ;
48 [label="entropy = 0.0\nsamples = 1\nvalue = [1, 0]"] ;
46 -> 48 ;
49 [label="education_unknown <= 0.5\nentropy = 0.2\nsamples = 45\nvalue = [44, 1]"] ;
35 -> 49 ;
50 [label="entropy = 0.0\nsamples = 40\nvalue = [40, 0]"] ;
49 -> 50 ;
51 [label="nr.employed <= 5046.9\nentropy = 0.7\nsamples = 5\nvalue = [4, 1]"] ;
49 -> 51 ;
52 [label="entropy = 0.0\nsamples = 4\nvalue = [4, 0]"] ;
51 -> 52 ;
53 [label="entropy = 0.0\nsamples = 1\nvalue = [0, 1]"] ;
51 -> 53 ;
54 [label="housing_yes <= 1.0\nentropy = 1.0\nsamples = 185\nvalue = [82, 103]"] ;
34 -> 54 ;
55 [label="entropy = 0.0\nsamples = 40\nvalue = [0, 40]"] ;
54 -> 55 ;
56 [label="age <= 39.5\nentropy = 1.0\nsamples = 145\nvalue = [82, 63]"] ;
54 -> 56 ;
57 [label="month_mar <= 0.3\nentropy = 0.7\nsamples = 55\nvalue = [45, 10]"] ;
56 -> 57 ;
58 [label="job_student <= 0.4\nentropy = 0.6\nsamples = 51\nvalue = [44, 7]"] ;
57 -> 58 ;
59 [label="day_of_week_thu <= 0.5\nentropy = 0.3\nsamples = 38\nvalue = [36, 2]"] ;
58 -> 59 ;
60 [label="entropy = 0.0\nsamples = 29\nvalue = [29, 0]"] ;
59 -> 60 ;
61 [label="age <= 30.5\nentropy = 0.8\nsamples = 9\nvalue = [7, 2]"] ;
59 -> 61 ;
62 [label="duration <= 77.5\nentropy = 0.9\nsamples = 3\nvalue = [1, 2]"] ;
61 -> 62 ;
63 [label="entropy = 0.0\nsamples = 1\nvalue = [1, 0]"] ;
62 -> 63 ;
64 [label="entropy = 0.0\nsamples = 2\nvalue = [0, 2]"] ;
62 -> 64 ;
65 [label="entropy = 0.0\nsamples = 6\nvalue = [6, 0]"] ;
61 -> 65 ;
66 [label="marital_married <= 0.0\nentropy = 1.0\nsamples = 13\nvalue = [8, 5]"] ;
58 -> 66 ;
67 [label="loan_no <= 0.5\nentropy = 0.7\nsamples = 10\nvalue = [8, 2]"] ;
66 -> 67 ;
68 [label="entropy = 0.0\nsamples = 1\nvalue = [0, 1]"] ;
67 -> 68 ;
69 [label="education_university.degree <= 0.5\nentropy = 0.5\nsamples = 9\nvalue = [8, 1]"] ;
67 -> 69 ;
70 [label="entropy = 0.0\nsamples = 8\nvalue = [8, 0]"] ;
69 -> 70 ;
71 [label="entropy = 0.0\nsamples = 1\nvalue = [0, 1]"] ;
69 -> 71 ;
72 [label="entropy = 0.0\nsamples = 3\nvalue = [0, 3]"] ;
66 -> 72 ;
73 [label="job_blue-collar <= 0.3\nentropy = 0.8\nsamples = 4\nvalue = [1, 3]"] ;
57 -> 73 ;
74 [label="entropy = 0.0\nsamples = 1\nvalue = [1, 0]"] ;
73 -> 74 ;
75 [label="entropy = 0.0\nsamples = 3\nvalue = [0, 3]"] ;
73 -> 75 ;
76 [label="duration <= 82.5\nentropy = 1.0\nsamples = 90\nvalue = [37, 53]"] ;
56 -> 76 ;
77 [label="entropy = 0.0\nsamples = 12\nvalue = [12, 0]"] ;
76 -> 77 ;
78 [label="day_of_week_tue <= 0.0\nentropy = 0.9\nsamples = 78\nvalue = [25, 53]"] ;
76 -> 78 ;
79 [label="contact_cellular <= 0.5\nentropy = 1.0\nsamples = 42\nvalue = [22, 20]"] ;
78 -> 79 ;
80 [label="entropy = 0.0\nsamples = 7\nvalue = [7, 0]"] ;
79 -> 80 ;
81 [label="marital_single <= 0.0\nentropy = 1.0\nsamples = 35\nvalue = [15, 20]"] ;
79 -> 81 ;
82 [label="duration <= 101.5\nentropy = 1.0\nsamples = 27\nvalue = [15, 12]"] ;
81 -> 82 ;
83 [label="cons.price.idx <= 92.5\nentropy = 0.7\nsamples = 14\nvalue = [3, 11]"] ;
82 -> 83 ;
84 [label="euribor3m <= 0.9\nentropy = 1.0\nsamples = 7\nvalue = [3, 4]"] ;
83 -> 84 ;
85 [label="euribor3m <= 0.8\nentropy = 1.0\nsamples = 5\nvalue = [3, 2]"] ;
84 -> 85 ;
86 [label="day_of_week_fri <= 0.5\nentropy = 0.9\nsamples = 3\nvalue = [1, 2]"] ;
85 -> 86 ;
87 [label="entropy = 0.0\nsamples = 2\nvalue = [0, 2]"] ;
86 -> 87 ;
88 [label="entropy = 0.0\nsamples = 1\nvalue = [1, 0]"] ;
86 -> 88 ;
89 [label="entropy = 0.0\nsamples = 2\nvalue = [2, 0]"] ;
85 -> 89 ;
90 [label="entropy = 0.0\nsamples = 2\nvalue = [0, 2]"] ;
84 -> 90 ;
91 [label="entropy = 0.0\nsamples = 7\nvalue = [0, 7]"] ;
83 -> 91 ;
92 [label="age <= 43.5\nentropy = 0.4\nsamples = 13\nvalue = [12, 1]"] ;
82 -> 92 ;
93 [label="entropy = 0.0\nsamples = 1\nvalue = [0, 1]"] ;
92 -> 93 ;
94 [label="entropy = 0.0\nsamples = 12\nvalue = [12, 0]"] ;
92 -> 94 ;
95 [label="entropy = 0.0\nsamples = 8\nvalue = [0, 8]"] ;
81 -> 95 ;
96 [label="marital_married <= 0.0\nentropy = 0.4\nsamples = 36\nvalue = [3, 33]"] ;
78 -> 96 ;
97 [label="entropy = 0.0\nsamples = 2\nvalue = [2, 0]"] ;
96 -> 97 ;
98 [label="education_high.school <= 0.8\nentropy = 0.2\nsamples = 34\nvalue = [1, 33]"] ;
96 -> 98 ;
99 [label="entropy = 0.0\nsamples = 33\nvalue = [0, 33]"] ;
98 -> 99 ;
100 [label="entropy = 0.0\nsamples = 1\nvalue = [1, 0]"] ;
98 -> 100 ;
101 [label="entropy = 0.0\nsamples = 50\nvalue = [0, 50]"] ;
33 -> 101 ;
102 [label="campaign <= 2.0\nentropy = 0.4\nsamples = 88\nvalue = [80, 8]"] ;
32 -> 102 ;
103 [label="campaign <= 1.0\nentropy = 0.6\nsamples = 51\nvalue = [43, 8]"] ;
102 -> 103 ;
104 [label="euribor3m <= 1.3\nentropy = 0.3\nsamples = 46\nvalue = [43, 3]"] ;
103 -> 104 ;
105 [label="entropy = 0.0\nsamples = 33\nvalue = [33, 0]"] ;
104 -> 105 ;
106 [label="duration <= 81.0\nentropy = 0.8\nsamples = 13\nvalue = [10, 3]"] ;
104 -> 106 ;
107 [label="entropy = 0.0\nsamples = 6\nvalue = [6, 0]"] ;
106 -> 107 ;
108 [label="duration <= 86.5\nentropy = 1.0\nsamples = 7\nvalue = [4, 3]"] ;
106 -> 108 ;
109 [label="entropy = 0.0\nsamples = 1\nvalue = [0, 1]"] ;
108 -> 109 ;
110 [label="day_of_week_mon <= 0.5\nentropy = 0.9\nsamples = 6\nvalue = [4, 2]"] ;
108 -> 110 ;
111 [label="entropy = 0.0\nsamples = 3\nvalue = [3, 0]"] ;
110 -> 111 ;
112 [label="age <= 27.0\nentropy = 0.9\nsamples = 3\nvalue = [1, 2]"] ;
110 -> 112 ;
113 [label="entropy = 0.0\nsamples = 1\nvalue = [1, 0]"] ;
112 -> 113 ;
114 [label="entropy = 0.0\nsamples = 2\nvalue = [0, 2]"] ;
112 -> 114 ;
115 [label="entropy = 0.0\nsamples = 5\nvalue = [0, 5]"] ;
103 -> 115 ;
116 [label="entropy = 0.0\nsamples = 37\nvalue = [37, 0]"] ;
102 -> 116 ;
117 [label="job_admin. <= 0.5\nentropy = 0.4\nsamples = 121\nvalue = [110, 11]"] ;
5 -> 117 ;
118 [label="entropy = 0.0\nsamples = 65\nvalue = [65, 0]"] ;
117 -> 118 ;
119 [label="day_of_week_mon <= 0.1\nentropy = 0.7\nsamples = 56\nvalue = [45, 11]"] ;
117 -> 119 ;
120 [label="housing_no <= 0.5\nentropy = 0.4\nsamples = 42\nvalue = [39, 3]"] ;
119 -> 120 ;
121 [label="entropy = 0.0\nsamples = 25\nvalue = [25, 0]"] ;
120 -> 121 ;
122 [label="euribor3m <= 0.9\nentropy = 0.7\nsamples = 17\nvalue = [14, 3]"] ;
120 -> 122 ;
123 [label="education_unknown <= 0.5\nentropy = 0.4\nsamples = 15\nvalue = [14, 1]"] ;
122 -> 123 ;
124 [label="entropy = 0.0\nsamples = 14\nvalue = [14, 0]"] ;
123 -> 124 ;
125 [label="entropy = 0.0\nsamples = 1\nvalue = [0, 1]"] ;
123 -> 125 ;
126 [label="entropy = 0.0\nsamples = 2\nvalue = [0, 2]"] ;
122 -> 126 ;
127 [label="day_of_week_mon <= 1.0\nentropy = 1.0\nsamples = 14\nvalue = [6, 8]"] ;
119 -> 127 ;
128 [label="entropy = 0.0\nsamples = 6\nvalue = [0, 6]"] ;
127 -> 128 ;
129 [label="duration <= 85.0\nentropy = 0.8\nsamples = 8\nvalue = [6, 2]"] ;
127 -> 129 ;
130 [label="entropy = 0.0\nsamples = 2\nvalue = [0, 2]"] ;
129 -> 130 ;
131 [label="entropy = 0.0\nsamples = 6\nvalue = [6, 0]"] ;
129 -> 131 ;
132 [label="poutcome_success <= 0.0\nentropy = 0.7\nsamples = 2176\nvalue = [411, 1765]"] ;
2 -> 132 ;
133 [label="day_of_week_tue <= 0.0\nentropy = 0.8\nsamples = 1325\nvalue = [358, 967]"] ;
132 -> 133 ;
134 [label="marital_married <= 1.0\nentropy = 0.9\nsamples = 807\nvalue = [292, 515]"] ;
133 -> 134 ;
135 [label="marital_married <= 0.0\nentropy = 0.8\nsamples = 481\nvalue = [125, 356]"] ;
134 -> 135 ;
136 [label="emp.var.rate <= -1.8\nentropy = 1.0\nsamples = 289\nvalue = [125, 164]"] ;
135 -> 136 ;
137 [label="job_admin. <= 1.0\nentropy = 0.9\nsamples = 203\nvalue = [62, 141]"] ;
136 -> 137 ;
138 [label="job_admin. <= 0.0\nentropy = 0.8\nsamples = 155\nvalue = [35, 120]"] ;
137 -> 138 ;
139 [label="education_basic <= 1.0\nentropy = 0.9\nsamples = 114\nvalue = [35, 79]"] ;
138 -> 139 ;
140 [label="euribor3m <= 0.7\nentropy = 0.8\nsamples = 103\nvalue = [26, 77]"] ;
139 -> 140 ;
141 [label="campaign <= 2.0\nentropy = 0.4\nsamples = 30\nvalue = [2, 28]"] ;
140 -> 141 ;
142 [label="entropy = 0.0\nsamples = 27\nvalue = [0, 27]"] ;
141 -> 142 ;
143 [label="duration <= 186.0\nentropy = 0.9\nsamples = 3\nvalue = [2, 1]"] ;
141 -> 143 ;
144 [label="entropy = 0.0\nsamples = 2\nvalue = [2, 0]"] ;
143 -> 144 ;
145 [label="entropy = 0.0\nsamples = 1\nvalue = [0, 1]"] ;
143 -> 145 ;
146 [label="age <= 50.5\nentropy = 0.9\nsamples = 73\nvalue = [24, 49]"] ;
140 -> 146 ;
147 [label="education_university.degree <= 0.0\nentropy = 0.9\nsamples = 69\nvalue = [20, 49]"] ;
146 -> 147 ;
148 [label="campaign <= 1.4\nentropy = 1.0\nsamples = 27\nvalue = [14, 13]"] ;
147 -> 148 ;
149 [label="job_technician <= 0.5\nentropy = 0.7\nsamples = 12\nvalue = [10, 2]"] ;
148 -> 149 ;
150 [label="entropy = 0.0\nsamples = 8\nvalue = [8, 0]"] ;
149 -> 150 ;
151 [label="cons.conf.idx <= -36.1\nentropy = 1.0\nsamples = 4\nvalue = [2, 2]"] ;
149 -> 151 ;
152 [label="entropy = 0.0\nsamples = 2\nvalue = [0, 2]"] ;
151 -> 152 ;
153 [label="entropy = 0.0\nsamples = 2\nvalue = [2, 0]"] ;
151 -> 153 ;
154 [label="age <= 27.5\nentropy = 0.8\nsamples = 15\nvalue = [4, 11]"] ;
148 -> 154 ;
155 [label="entropy = 0.0\nsamples = 7\nvalue = [0, 7]"] ;
154 -> 155 ;
156 [label="campaign <= 1.9\nentropy = 1.0\nsamples = 8\nvalue = [4, 4]"] ;
154 -> 156 ;
157 [label="entropy = 0.0\nsamples = 2\nvalue = [0, 2]"] ;
156 -> 157 ;
158 [label="age <= 34.5\nentropy = 0.9\nsamples = 6\nvalue = [4, 2]"] ;
156 -> 158 ;
159 [label="entropy = 0.0\nsamples = 3\nvalue = [3, 0]"] ;
158 -> 159 ;
160 [label="campaign <= 3.5\nentropy = 0.9\nsamples = 3\nvalue = [1, 2]"] ;
158 -> 160 ;
161 [label="entropy = 0.0\nsamples = 2\nvalue = [0, 2]"] ;
160 -> 161 ;
162 [label="entropy = 0.0\nsamples = 1\nvalue = [1, 0]"] ;
160 -> 162 ;
163 [label="month_aug <= 0.9\nentropy = 0.6\nsamples = 42\nvalue = [6, 36]"] ;
147 -> 163 ;
164 [label="loan_yes <= 1.0\nentropy = 0.3\nsamples = 35\nvalue = [2, 33]"] ;
163 -> 164 ;
165 [label="entropy = 0.0\nsamples = 32\nvalue = [0, 32]"] ;
164 -> 165 ;
166 [label="job_student <= 0.5\nentropy = 0.9\nsamples = 3\nvalue = [2, 1]"] ;
164 -> 166 ;
167 [label="entropy = 0.0\nsamples = 2\nvalue = [2, 0]"] ;
166 -> 167 ;
168 [label="entropy = 0.0\nsamples = 1\nvalue = [0, 1]"] ;
166 -> 168 ;
169 [label="job_student <= 0.5\nentropy = 1.0\nsamples = 7\nvalue = [4, 3]"] ;
163 -> 169 ;
170 [label="entropy = 0.0\nsamples = 4\nvalue = [4, 0]"] ;
169 -> 170 ;
171 [label="entropy = 0.0\nsamples = 3\nvalue = [0, 3]"] ;
169 -> 171 ;
172 [label="entropy = 0.0\nsamples = 4\nvalue = [4, 0]"] ;
146 -> 172 ;
173 [label="euribor3m <= 0.7\nentropy = 0.7\nsamples = 11\nvalue = [9, 2]"] ;
139 -> 173 ;
174 [label="entropy = 0.0\nsamples = 1\nvalue = [0, 1]"] ;
173 -> 174 ;
175 [label="job_management <= 0.5\nentropy = 0.5\nsamples = 10\nvalue = [9, 1]"] ;
173 -> 175 ;
176 [label="entropy = 0.0\nsamples = 9\nvalue = [9, 0]"] ;
175 -> 176 ;
177 [label="entropy = 0.0\nsamples = 1\nvalue = [0, 1]"] ;
175 -> 177 ;
178 [label="entropy = 0.0\nsamples = 41\nvalue = [0, 41]"] ;
138 -> 178 ;
179 [label="month_jul <= 0.1\nentropy = 1.0\nsamples = 48\nvalue = [27, 21]"] ;
137 -> 179 ;
180 [label="marital_single <= 0.5\nentropy = 0.9\nsamples = 38\nvalue = [25, 13]"] ;
179 -> 180 ;
181 [label="entropy = 0.0\nsamples = 5\nvalue = [5, 0]"] ;
180 -> 181 ;
182 [label="month_oct <= 0.5\nentropy = 1.0\nsamples = 33\nvalue = [20, 13]"] ;
180 -> 182 ;
183 [label="duration <= 203.6\nentropy = 1.0\nsamples = 28\nvalue = [15, 13]"] ;
182 -> 183 ;
184 [label="education_high.school <= 0.2\nentropy = 1.0\nsamples = 25\nvalue = [12, 13]"] ;
183 -> 184 ;
185 [label="euribor3m <= 0.9\nentropy = 0.9\nsamples = 14\nvalue = [9, 5]"] ;
184 -> 185 ;
186 [label="day_of_week_wed <= 0.5\nentropy = 0.7\nsamples = 5\nvalue = [1, 4]"] ;
185 -> 186 ;
187 [label="entropy = 0.0\nsamples = 3\nvalue = [0, 3]"] ;
186 -> 187 ;
188 [label="housing_yes <= 0.5\nentropy = 1.0\nsamples = 2\nvalue = [1, 1]"] ;
186 -> 188 ;
189 [label="entropy = 0.0\nsamples = 1\nvalue = [0, 1]"] ;
188 -> 189 ;
190 [label="entropy = 0.0\nsamples = 1\nvalue = [1, 0]"] ;
188 -> 190 ;
191 [label="age <= 44.5\nentropy = 0.5\nsamples = 9\nvalue = [8, 1]"] ;
185 -> 191 ;
192 [label="entropy = 0.0\nsamples = 8\nvalue = [8, 0]"] ;
191 -> 192 ;
193 [label="entropy = 0.0\nsamples = 1\nvalue = [0, 1]"] ;
191 -> 193 ;
194 [label="day_of_week_wed <= 0.8\nentropy = 0.8\nsamples = 11\nvalue = [3, 8]"] ;
184 -> 194 ;
195 [label="entropy = 0.0\nsamples = 7\nvalue = [0, 7]"] ;
194 -> 195 ;
196 [label="duration <= 189.0\nentropy = 0.8\nsamples = 4\nvalue = [3, 1]"] ;
194 -> 196 ;
197 [label="entropy = 0.0\nsamples = 3\nvalue = [3, 0]"] ;
196 -> 197 ;
198 [label="entropy = 0.0\nsamples = 1\nvalue = [0, 1]"] ;
196 -> 198 ;
199 [label="entropy = 0.0\nsamples = 3\nvalue = [3, 0]"] ;
183 -> 199 ;
200 [label="entropy = 0.0\nsamples = 5\nvalue = [5, 0]"] ;
182 -> 200 ;
201 [label="day_of_week_wed <= 0.0\nentropy = 0.7\nsamples = 10\nvalue = [2, 8]"] ;
179 -> 201 ;
202 [label="marital_single <= 0.5\nentropy = 0.9\nsamples = 3\nvalue = [2, 1]"] ;
201 -> 202 ;
203 [label="entropy = 0.0\nsamples = 1\nvalue = [0, 1]"] ;
202 -> 203 ;
204 [label="entropy = 0.0\nsamples = 2\nvalue = [2, 0]"] ;
202 -> 204 ;
205 [label="entropy = 0.0\nsamples = 7\nvalue = [0, 7]"] ;
201 -> 205 ;
206 [label="euribor3m <= 0.7\nentropy = 0.8\nsamples = 86\nvalue = [63, 23]"] ;
136 -> 206 ;
207 [label="entropy = 0.0\nsamples = 18\nvalue = [18, 0]"] ;
206 -> 207 ;
208 [label="duration <= 166.5\nentropy = 0.9\nsamples = 68\nvalue = [45, 23]"] ;
206 -> 208 ;
209 [label="euribor3m <= 0.7\nentropy = 0.6\nsamples = 30\nvalue = [26, 4]"] ;
208 -> 209 ;
210 [label="entropy = 0.0\nsamples = 2\nvalue = [0, 2]"] ;
209 -> 210 ;
211 [label="education_basic <= 0.5\nentropy = 0.4\nsamples = 28\nvalue = [26, 2]"] ;
209 -> 211 ;
212 [label="entropy = 0.0\nsamples = 23\nvalue = [23, 0]"] ;
211 -> 212 ;
213 [label="euribor3m <= 0.9\nentropy = 1.0\nsamples = 5\nvalue = [3, 2]"] ;
211 -> 213 ;
214 [label="previous <= 0.5\nentropy = 0.9\nsamples = 3\nvalue = [1, 2]"] ;
213 -> 214 ;
215 [label="entropy = 0.0\nsamples = 1\nvalue = [1, 0]"] ;
214 -> 215 ;
216 [label="entropy = 0.0\nsamples = 2\nvalue = [0, 2]"] ;
214 -> 216 ;
217 [label="entropy = 0.0\nsamples = 2\nvalue = [2, 0]"] ;
213 -> 217 ;
218 [label="education_university.degree <= 0.5\nentropy = 1.0\nsamples = 38\nvalue = [19, 19]"] ;
208 -> 218 ;
219 [label="job_unemployed <= 0.2\nentropy = 0.7\nsamples = 19\nvalue = [15, 4]"] ;
218 -> 219 ;
220 [label="housing_yes <= 0.5\nentropy = 0.5\nsamples = 17\nvalue = [15, 2]"] ;
219 -> 220 ;
221 [label="job_student <= 0.5\nentropy = 0.9\nsamples = 7\nvalue = [5, 2]"] ;
220 -> 221 ;
222 [label="entropy = 0.0\nsamples = 4\nvalue = [4, 0]"] ;
221 -> 222 ;
223 [label="euribor3m <= 0.9\nentropy = 0.9\nsamples = 3\nvalue = [1, 2]"] ;
221 -> 223 ;
224 [label="entropy = 0.0\nsamples = 2\nvalue = [0, 2]"] ;
223 -> 224 ;
225 [label="entropy = 0.0\nsamples = 1\nvalue = [1, 0]"] ;
223 -> 225 ;
226 [label="entropy = 0.0\nsamples = 10\nvalue = [10, 0]"] ;
220 -> 226 ;
227 [label="entropy = 0.0\nsamples = 2\nvalue = [0, 2]"] ;
219 -> 227 ;
228 [label="cons.conf.idx <= -39.9\nentropy = 0.7\nsamples = 19\nvalue = [4, 15]"] ;
218 -> 228 ;
229 [label="euribor3m <= 0.9\nentropy = 1.0\nsamples = 8\nvalue = [4, 4]"] ;
228 -> 229 ;
230 [label="entropy = 0.0\nsamples = 4\nvalue = [4, 0]"] ;
229 -> 230 ;
231 [label="entropy = 0.0\nsamples = 4\nvalue = [0, 4]"] ;
229 -> 231 ;
232 [label="entropy = 0.0\nsamples = 11\nvalue = [0, 11]"] ;
228 -> 232 ;
233 [label="entropy = 0.0\nsamples = 192\nvalue = [0, 192]"] ;
135 -> 233 ;
234 [label="education_basic <= 0.0\nentropy = 1.0\nsamples = 326\nvalue = [167, 159]"] ;
134 -> 234 ;
235 [label="duration <= 196.3\nentropy = 1.0\nsamples = 219\nvalue = [133, 86]"] ;
234 -> 235 ;
236 [label="contact_cellular <= 0.5\nentropy = 0.9\nsamples = 187\nvalue = [127, 60]"] ;
235 -> 236 ;
237 [label="entropy = 0.0\nsamples = 22\nvalue = [22, 0]"] ;
236 -> 237 ;
238 [label="cons.price.idx <= 93.9\nentropy = 0.9\nsamples = 165\nvalue = [105, 60]"] ;
236 -> 238 ;
239 [label="education_university.degree <= 1.0\nentropy = 1.0\nsamples = 133\nvalue = [76, 57]"] ;
238 -> 239 ;
240 [label="education_university.degree <= 0.0\nentropy = 1.0\nsamples = 68\nvalue = [29, 39]"] ;
239 -> 240 ;
241 [label="campaign <= 1.1\nentropy = 1.0\nsamples = 52\nvalue = [29, 23]"] ;
240 -> 241 ;
242 [label="age <= 51.0\nentropy = 0.7\nsamples = 20\nvalue = [16, 4]"] ;
241 -> 242 ;
243 [label="entropy = 0.0\nsamples = 8\nvalue = [8, 0]"] ;
242 -> 243 ;
244 [label="day_of_week_thu <= 0.9\nentropy = 0.9\nsamples = 12\nvalue = [8, 4]"] ;
242 -> 244 ;
245 [label="duration <= 145.7\nentropy = 1.0\nsamples = 7\nvalue = [3, 4]"] ;
244 -> 245 ;
246 [label="month_oct <= 0.5\nentropy = 0.8\nsamples = 4\nvalue = [3, 1]"] ;
245 -> 246 ;
247 [label="entropy = 0.0\nsamples = 3\nvalue = [3, 0]"] ;
246 -> 247 ;
248 [label="entropy = 0.0\nsamples = 1\nvalue = [0, 1]"] ;
246 -> 248 ;
249 [label="entropy = 0.0\nsamples = 3\nvalue = [0, 3]"] ;
245 -> 249 ;
250 [label="entropy = 0.0\nsamples = 5\nvalue = [5, 0]"] ;
244 -> 250 ;
251 [label="education_unknown <= 0.5\nentropy = 1.0\nsamples = 32\nvalue = [13, 19]"] ;
241 -> 251 ;
252 [label="campaign <= 4.0\nentropy = 0.9\nsamples = 28\nvalue = [9, 19]"] ;
251 -> 252 ;
253 [label="age <= 69.5\nentropy = 0.7\nsamples = 24\nvalue = [5, 19]"] ;
252 -> 253 ;
254 [label="job_student <= 0.5\nentropy = 0.6\nsamples = 22\nvalue = [3, 19]"] ;
253 -> 254 ;
255 [label="duration <= 130.0\nentropy = 0.5\nsamples = 21\nvalue = [2, 19]"] ;
254 -> 255 ;
256 [label="entropy = 0.0\nsamples = 1\nvalue = [1, 0]"] ;
255 -> 256 ;
257 [label="cons.conf.idx <= -28.5\nentropy = 0.3\nsamples = 20\nvalue = [1, 19]"] ;
255 -> 257 ;
258 [label="entropy = 0.0\nsamples = 18\nvalue = [0, 18]"] ;
257 -> 258 ;
259 [label="day_of_week_thu <= 0.5\nentropy = 1.0\nsamples = 2\nvalue = [1, 1]"] ;
257 -> 259 ;
260 [label="entropy = 0.0\nsamples = 1\nvalue = [0, 1]"] ;
259 -> 260 ;
261 [label="entropy = 0.0\nsamples = 1\nvalue = [1, 0]"] ;
259 -> 261 ;
262 [label="entropy = 0.0\nsamples = 1\nvalue = [1, 0]"] ;
254 -> 262 ;
263 [label="entropy = 0.0\nsamples = 2\nvalue = [2, 0]"] ;
253 -> 263 ;
264 [label="entropy = 0.0\nsamples = 4\nvalue = [4, 0]"] ;
252 -> 264 ;
265 [label="entropy = 0.0\nsamples = 4\nvalue = [4, 0]"] ;
251 -> 265 ;
266 [label="entropy = 0.0\nsamples = 16\nvalue = [0, 16]"] ;
240 -> 266 ;
267 [label="month_may <= 0.4\nentropy = 0.9\nsamples = 65\nvalue = [47, 18]"] ;
239 -> 267 ;
268 [label="previous <= 1.5\nentropy = 0.8\nsamples = 62\nvalue = [47, 15]"] ;
267 -> 268 ;
269 [label="duration <= 138.5\nentropy = 0.7\nsamples = 59\nvalue = [47, 12]"] ;
268 -> 269 ;
270 [label="entropy = 0.0\nsamples = 15\nvalue = [15, 0]"] ;
269 -> 270 ;
271 [label="age <= 55.5\nentropy = 0.8\nsamples = 44\nvalue = [32, 12]"] ;
269 -> 271 ;
272 [label="age <= 34.0\nentropy = 0.9\nsamples = 36\nvalue = [24, 12]"] ;
271 -> 272 ;
273 [label="entropy = 0.0\nsamples = 6\nvalue = [6, 0]"] ;
272 -> 273 ;
274 [label="age <= 36.5\nentropy = 1.0\nsamples = 30\nvalue = [18, 12]"] ;
272 -> 274 ;
275 [label="entropy = 0.0\nsamples = 3\nvalue = [0, 3]"] ;
274 -> 275 ;
276 [label="day_of_week_mon <= 0.5\nentropy = 0.9\nsamples = 27\nvalue = [18, 9]"] ;
274 -> 276 ;
277 [label="duration <= 165.5\nentropy = 1.0\nsamples = 19\nvalue = [10, 9]"] ;
276 -> 277 ;
278 [label="age <= 41.8\nentropy = 1.0\nsamples = 16\nvalue = [7, 9]"] ;
277 -> 278 ;
279 [label="entropy = 0.0\nsamples = 5\nvalue = [0, 5]"] ;
278 -> 279 ;
280 [label="duration <= 159.0\nentropy = 0.9\nsamples = 11\nvalue = [7, 4]"] ;
278 -> 280 ;
281 [label="duration <= 146.0\nentropy = 0.8\nsamples = 9\nvalue = [7, 2]"] ;
280 -> 281 ;
282 [label="age <= 52.0\nentropy = 1.0\nsamples = 4\nvalue = [2, 2]"] ;
281 -> 282 ;
283 [label="entropy = 0.0\nsamples = 2\nvalue = [0, 2]"] ;
282 -> 283 ;
284 [label="entropy = 0.0\nsamples = 2\nvalue = [2, 0]"] ;
282 -> 284 ;
285 [label="entropy = 0.0\nsamples = 5\nvalue = [5, 0]"] ;
281 -> 285 ;
286 [label="entropy = 0.0\nsamples = 2\nvalue = [0, 2]"] ;
280 -> 286 ;
287 [label="entropy = 0.0\nsamples = 3\nvalue = [3, 0]"] ;
277 -> 287 ;
288 [label="entropy = 0.0\nsamples = 8\nvalue = [8, 0]"] ;
276 -> 288 ;
289 [label="entropy = 0.0\nsamples = 8\nvalue = [8, 0]"] ;
271 -> 289 ;
290 [label="entropy = 0.0\nsamples = 3\nvalue = [0, 3]"] ;
268 -> 290 ;
291 [label="entropy = 0.0\nsamples = 3\nvalue = [0, 3]"] ;
267 -> 291 ;
292 [label="duration <= 182.5\nentropy = 0.4\nsamples = 32\nvalue = [29, 3]"] ;
238 -> 292 ;
293 [label="job_technician <= 0.5\nentropy = 0.2\nsamples = 27\nvalue = [26, 1]"] ;
292 -> 293 ;
294 [label="entropy = 0.0\nsamples = 22\nvalue = [22, 0]"] ;
293 -> 294 ;
295 [label="month_sep <= 0.5\nentropy = 0.7\nsamples = 5\nvalue = [4, 1]"] ;
293 -> 295 ;
296 [label="entropy = 0.0\nsamples = 3\nvalue = [3, 0]"] ;
295 -> 296 ;
297 [label="housing_no <= 0.5\nentropy = 1.0\nsamples = 2\nvalue = [1, 1]"] ;
295 -> 297 ;
298 [label="entropy = 0.0\nsamples = 1\nvalue = [1, 0]"] ;
297 -> 298 ;
299 [label="entropy = 0.0\nsamples = 1\nvalue = [0, 1]"] ;
297 -> 299 ;
300 [label="campaign <= 1.5\nentropy = 1.0\nsamples = 5\nvalue = [3, 2]"] ;
292 -> 300 ;
301 [label="entropy = 0.0\nsamples = 2\nvalue = [0, 2]"] ;
300 -> 301 ;
302 [label="entropy = 0.0\nsamples = 3\nvalue = [3, 0]"] ;
300 -> 302 ;
303 [label="age <= 38.0\nentropy = 0.7\nsamples = 32\nvalue = [6, 26]"] ;
235 -> 303 ;
304 [label="day_of_week_fri <= 1.0\nentropy = 0.4\nsamples = 26\nvalue = [2, 24]"] ;
303 -> 304 ;
305 [label="entropy = 0.0\nsamples = 23\nvalue = [0, 23]"] ;
304 -> 305 ;
306 [label="housing_no <= 0.5\nentropy = 0.9\nsamples = 3\nvalue = [2, 1]"] ;
304 -> 306 ;
307 [label="entropy = 0.0\nsamples = 2\nvalue = [2, 0]"] ;
306 -> 307 ;
308 [label="entropy = 0.0\nsamples = 1\nvalue = [0, 1]"] ;
306 -> 308 ;
309 [label="cons.price.idx <= 92.4\nentropy = 0.9\nsamples = 6\nvalue = [4, 2]"] ;
303 -> 309 ;
310 [label="entropy = 0.0\nsamples = 2\nvalue = [0, 2]"] ;
309 -> 310 ;
311 [label="entropy = 0.0\nsamples = 4\nvalue = [4, 0]"] ;
309 -> 311 ;
312 [label="education_basic <= 1.0\nentropy = 0.9\nsamples = 107\nvalue = [34, 73]"] ;
234 -> 312 ;
313 [label="entropy = 0.0\nsamples = 51\nvalue = [0, 51]"] ;
312 -> 313 ;
314 [label="housing_no <= 1.0\nentropy = 1.0\nsamples = 56\nvalue = [34, 22]"] ;
312 -> 314 ;
315 [label="housing_yes <= 1.0\nentropy = 1.0\nsamples = 33\nvalue = [15, 18]"] ;
314 -> 315 ;
316 [label="entropy = 0.0\nsamples = 7\nvalue = [0, 7]"] ;
315 -> 316 ;
317 [label="cons.conf.idx <= -29.8\nentropy = 1.0\nsamples = 26\nvalue = [15, 11]"] ;
315 -> 317 ;
318 [label="month_mar <= 0.2\nentropy = 0.9\nsamples = 21\nvalue = [15, 6]"] ;
317 -> 318 ;
319 [label="duration <= 126.5\nentropy = 0.7\nsamples = 18\nvalue = [15, 3]"] ;
318 -> 319 ;
320 [label="entropy = 0.0\nsamples = 1\nvalue = [0, 1]"] ;
319 -> 320 ;
321 [label="age <= 75.5\nentropy = 0.5\nsamples = 17\nvalue = [15, 2]"] ;
319 -> 321 ;
322 [label="job_services <= 0.5\nentropy = 0.3\nsamples = 16\nvalue = [15, 1]"] ;
321 -> 322 ;
323 [label="entropy = 0.0\nsamples = 14\nvalue = [14, 0]"] ;
322 -> 323 ;
324 [label="loan_no <= 0.5\nentropy = 1.0\nsamples = 2\nvalue = [1, 1]"] ;
322 -> 324 ;
325 [label="entropy = 0.0\nsamples = 1\nvalue = [1, 0]"] ;
324 -> 325 ;
326 [label="entropy = 0.0\nsamples = 1\nvalue = [0, 1]"] ;
324 -> 326 ;
327 [label="entropy = 0.0\nsamples = 1\nvalue = [0, 1]"] ;
321 -> 327 ;
328 [label="entropy = 0.0\nsamples = 3\nvalue = [0, 3]"] ;
318 -> 328 ;
329 [label="entropy = 0.0\nsamples = 5\nvalue = [0, 5]"] ;
317 -> 329 ;
330 [label="euribor3m <= 0.7\nentropy = 0.7\nsamples = 23\nvalue = [19, 4]"] ;
314 -> 330 ;
331 [label="entropy = 0.0\nsamples = 9\nvalue = [9, 0]"] ;
330 -> 331 ;
332 [label="job_blue-collar <= 0.5\nentropy = 0.9\nsamples = 14\nvalue = [10, 4]"] ;
330 -> 332 ;
333 [label="duration <= 157.0\nentropy = 0.7\nsamples = 12\nvalue = [10, 2]"] ;
332 -> 333 ;
334 [label="entropy = 0.0\nsamples = 7\nvalue = [7, 0]"] ;
333 -> 334 ;
335 [label="day_of_week_mon <= 0.5\nentropy = 1.0\nsamples = 5\nvalue = [3, 2]"] ;
333 -> 335 ;
336 [label="entropy = 0.0\nsamples = 3\nvalue = [3, 0]"] ;
335 -> 336 ;
337 [label="entropy = 0.0\nsamples = 2\nvalue = [0, 2]"] ;
335 -> 337 ;
338 [label="entropy = 0.0\nsamples = 2\nvalue = [0, 2]"] ;
332 -> 338 ;
339 [label="day_of_week_tue <= 1.0\nentropy = 0.6\nsamples = 518\nvalue = [66, 452]"] ;
133 -> 339 ;
340 [label="entropy = 0.0\nsamples = 345\nvalue = [0, 345]"] ;
339 -> 340 ;
341 [label="duration <= 172.3\nentropy = 1.0\nsamples = 173\nvalue = [66, 107]"] ;
339 -> 341 ;
342 [label="month_sep <= 0.1\nentropy = 1.0\nsamples = 78\nvalue = [43, 35]"] ;
341 -> 342 ;
343 [label="age <= 74.0\nentropy = 0.9\nsamples = 63\nvalue = [42, 21]"] ;
342 -> 343 ;
344 [label="job_management <= 0.1\nentropy = 0.8\nsamples = 58\nvalue = [42, 16]"] ;
343 -> 344 ;
345 [label="job_entrepreneur <= 0.2\nentropy = 0.7\nsamples = 50\nvalue = [41, 9]"] ;
344 -> 345 ;
346 [label="month_may <= 0.5\nentropy = 0.6\nsamples = 49\nvalue = [41, 8]"] ;
345 -> 346 ;
347 [label="month_aug <= 0.5\nentropy = 0.6\nsamples = 48\nvalue = [41, 7]"] ;
346 -> 347 ;
348 [label="previous <= 0.5\nentropy = 0.4\nsamples = 36\nvalue = [33, 3]"] ;
347 -> 348 ;
349 [label="age <= 42.0\nentropy = 0.6\nsamples = 23\nvalue = [20, 3]"] ;
348 -> 349 ;
350 [label="age <= 32.5\nentropy = 0.7\nsamples = 15\nvalue = [12, 3]"] ;
349 -> 350 ;
351 [label="job_unknown <= 0.5\nentropy = 0.4\nsamples = 13\nvalue = [12, 1]"] ;
350 -> 351 ;
352 [label="entropy = 0.0\nsamples = 12\nvalue = [12, 0]"] ;
351 -> 352 ;
353 [label="entropy = 0.0\nsamples = 1\nvalue = [0, 1]"] ;
351 -> 353 ;
354 [label="entropy = 0.0\nsamples = 2\nvalue = [0, 2]"] ;
350 -> 354 ;
355 [label="entropy = 0.0\nsamples = 8\nvalue = [8, 0]"] ;
349 -> 355 ;
356 [label="entropy = 0.0\nsamples = 13\nvalue = [13, 0]"] ;
348 -> 356 ;
357 [label="default_no <= 0.5\nentropy = 0.9\nsamples = 12\nvalue = [8, 4]"] ;
347 -> 357 ;
358 [label="entropy = 0.0\nsamples = 1\nvalue = [0, 1]"] ;
357 -> 358 ;
359 [label="job_admin. <= 0.5\nentropy = 0.8\nsamples = 11\nvalue = [8, 3]"] ;
357 -> 359 ;
360 [label="entropy = 0.0\nsamples = 4\nvalue = [4, 0]"] ;
359 -> 360 ;
361 [label="age <= 30.5\nentropy = 1.0\nsamples = 7\nvalue = [4, 3]"] ;
359 -> 361 ;
362 [label="entropy = 0.0\nsamples = 2\nvalue = [2, 0]"] ;
361 -> 362 ;
363 [label="duration <= 159.0\nentropy = 1.0\nsamples = 5\nvalue = [2, 3]"] ;
361 -> 363 ;
364 [label="campaign <= 2.0\nentropy = 0.9\nsamples = 3\nvalue = [2, 1]"] ;
363 -> 364 ;
365 [label="entropy = 0.0\nsamples = 2\nvalue = [2, 0]"] ;
364 -> 365 ;
366 [label="entropy = 0.0\nsamples = 1\nvalue = [0, 1]"] ;
364 -> 366 ;
367 [label="entropy = 0.0\nsamples = 2\nvalue = [0, 2]"] ;
363 -> 367 ;
368 [label="entropy = 0.0\nsamples = 1\nvalue = [0, 1]"] ;
346 -> 368 ;
369 [label="entropy = 0.0\nsamples = 1\nvalue = [0, 1]"] ;
345 -> 369 ;
370 [label="housing_yes <= 0.1\nentropy = 0.5\nsamples = 8\nvalue = [1, 7]"] ;
344 -> 370 ;
371 [label="entropy = 0.0\nsamples = 1\nvalue = [1, 0]"] ;
370 -> 371 ;
372 [label="entropy = 0.0\nsamples = 7\nvalue = [0, 7]"] ;
370 -> 372 ;
373 [label="entropy = 0.0\nsamples = 5\nvalue = [0, 5]"] ;
343 -> 373 ;
374 [label="euribor3m <= 0.8\nentropy = 0.4\nsamples = 15\nvalue = [1, 14]"] ;
342 -> 374 ;
375 [label="entropy = 0.0\nsamples = 14\nvalue = [0, 14]"] ;
374 -> 375 ;
376 [label="entropy = 0.0\nsamples = 1\nvalue = [1, 0]"] ;
374 -> 376 ;
377 [label="job_admin. <= 0.0\nentropy = 0.8\nsamples = 95\nvalue = [23, 72]"] ;
341 -> 377 ;
378 [label="duration <= 188.0\nentropy = 1.0\nsamples = 47\nvalue = [18, 29]"] ;
377 -> 378 ;
379 [label="education_university.degree <= 0.7\nentropy = 0.5\nsamples = 27\nvalue = [3, 24]"] ;
378 -> 379 ;
380 [label="entropy = 0.0\nsamples = 23\nvalue = [0, 23]"] ;
379 -> 380 ;
381 [label="duration <= 176.0\nentropy = 0.8\nsamples = 4\nvalue = [3, 1]"] ;
379 -> 381 ;
382 [label="entropy = 0.0\nsamples = 1\nvalue = [0, 1]"] ;
381 -> 382 ;
383 [label="entropy = 0.0\nsamples = 3\nvalue = [3, 0]"] ;
381 -> 383 ;
384 [label="duration <= 206.0\nentropy = 0.8\nsamples = 20\nvalue = [15, 5]"] ;
378 -> 384 ;
385 [label="age <= 33.5\nentropy = 0.7\nsamples = 18\nvalue = [15, 3]"] ;
384 -> 385 ;
386 [label="entropy = 0.0\nsamples = 9\nvalue = [9, 0]"] ;
385 -> 386 ;
387 [label="marital_married <= 0.5\nentropy = 0.9\nsamples = 9\nvalue = [6, 3]"] ;
385 -> 387 ;
388 [label="entropy = 0.0\nsamples = 3\nvalue = [3, 0]"] ;
387 -> 388 ;
389 [label="education_university.degree <= 0.5\nentropy = 1.0\nsamples = 6\nvalue = [3, 3]"] ;
387 -> 389 ;
390 [label="age <= 71.5\nentropy = 0.8\nsamples = 4\nvalue = [3, 1]"] ;
389 -> 390 ;
391 [label="entropy = 0.0\nsamples = 3\nvalue = [3, 0]"] ;
390 -> 391 ;
392 [label="entropy = 0.0\nsamples = 1\nvalue = [0, 1]"] ;
390 -> 392 ;
393 [label="entropy = 0.0\nsamples = 2\nvalue = [0, 2]"] ;
389 -> 393 ;
394 [label="entropy = 0.0\nsamples = 2\nvalue = [0, 2]"] ;
384 -> 394 ;
395 [label="month_jul <= 0.6\nentropy = 0.5\nsamples = 48\nvalue = [5, 43]"] ;
377 -> 395 ;
396 [label="duration <= 178.3\nentropy = 0.3\nsamples = 46\nvalue = [3, 43]"] ;
395 -> 396 ;
397 [label="age <= 36.5\nentropy = 0.9\nsamples = 3\nvalue = [2, 1]"] ;
396 -> 397 ;
398 [label="entropy = 0.0\nsamples = 1\nvalue = [0, 1]"] ;
397 -> 398 ;
399 [label="entropy = 0.0\nsamples = 2\nvalue = [2, 0]"] ;
397 -> 399 ;
400 [label="emp.var.rate <= -3.0\nentropy = 0.2\nsamples = 43\nvalue = [1, 42]"] ;
396 -> 400 ;
401 [label="entropy = 0.0\nsamples = 1\nvalue = [1, 0]"] ;
400 -> 401 ;
402 [label="entropy = 0.0\nsamples = 42\nvalue = [0, 42]"] ;
400 -> 402 ;
403 [label="entropy = 0.0\nsamples = 2\nvalue = [2, 0]"] ;
395 -> 403 ;
404 [label="day_of_week_mon <= 1.0\nentropy = 0.3\nsamples = 851\nvalue = [53, 798]"] ;
132 -> 404 ;
405 [label="job_technician <= 1.0\nentropy = 0.3\nsamples = 801\nvalue = [38, 763]"] ;
404 -> 405 ;
406 [label="day_of_week_wed <= 1.0\nentropy = 0.2\nsamples = 758\nvalue = [28, 730]"] ;
405 -> 406 ;
407 [label="job_unemployed <= 1.0\nentropy = 0.2\nsamples = 690\nvalue = [18, 672]"] ;
406 -> 407 ;
408 [label="day_of_week_tue <= 1.0\nentropy = 0.2\nsamples = 686\nvalue = [15, 671]"] ;
407 -> 408 ;
409 [label="month_oct <= 1.0\nentropy = 0.1\nsamples = 618\nvalue = [8, 610]"] ;
408 -> 409 ;
410 [label="job_self-employed <= 0.9\nentropy = 0.1\nsamples = 583\nvalue = [4, 579]"] ;
409 -> 410 ;
411 [label="campaign <= 3.0\nentropy = 0.0\nsamples = 582\nvalue = [3, 579]"] ;
410 -> 411 ;
412 [label="contact_cellular <= 0.0\nentropy = 0.0\nsamples = 556\nvalue = [1, 555]"] ;
411 -> 412 ;
413 [label="cons.price.idx <= 93.6\nentropy = 0.9\nsamples = 3\nvalue = [1, 2]"] ;
412 -> 413 ;
414 [label="entropy = 0.0\nsamples = 1\nvalue = [1, 0]"] ;
413 -> 414 ;
415 [label="entropy = 0.0\nsamples = 2\nvalue = [0, 2]"] ;
413 -> 415 ;
416 [label="entropy = 0.0\nsamples = 553\nvalue = [0, 553]"] ;
412 -> 416 ;
417 [label="job_admin. <= 0.0\nentropy = 0.4\nsamples = 26\nvalue = [2, 24]"] ;
411 -> 417 ;
418 [label="marital_married <= 0.0\nentropy = 0.9\nsamples = 7\nvalue = [2, 5]"] ;
417 -> 418 ;
419 [label="entropy = 0.0\nsamples = 2\nvalue = [2, 0]"] ;
418 -> 419 ;
420 [label="entropy = 0.0\nsamples = 5\nvalue = [0, 5]"] ;
418 -> 420 ;
421 [label="entropy = 0.0\nsamples = 19\nvalue = [0, 19]"] ;
417 -> 421 ;
422 [label="entropy = 0.0\nsamples = 1\nvalue = [1, 0]"] ;
410 -> 422 ;
423 [label="age <= 68.5\nentropy = 0.5\nsamples = 35\nvalue = [4, 31]"] ;
409 -> 423 ;
424 [label="job_admin. <= 1.0\nentropy = 0.3\nsamples = 33\nvalue = [2, 31]"] ;
423 -> 424 ;
425 [label="entropy = 0.0\nsamples = 27\nvalue = [0, 27]"] ;
424 -> 425 ;
426 [label="pdays <= 5.6\nentropy = 0.9\nsamples = 6\nvalue = [2, 4]"] ;
424 -> 426 ;
427 [label="entropy = 0.0\nsamples = 3\nvalue = [0, 3]"] ;
426 -> 427 ;
428 [label="campaign <= 1.5\nentropy = 0.9\nsamples = 3\nvalue = [2, 1]"] ;
426 -> 428 ;
429 [label="entropy = 0.0\nsamples = 1\nvalue = [0, 1]"] ;
428 -> 429 ;
430 [label="entropy = 0.0\nsamples = 2\nvalue = [2, 0]"] ;
428 -> 430 ;
431 [label="entropy = 0.0\nsamples = 2\nvalue = [2, 0]"] ;
423 -> 431 ;
432 [label="cons.price.idx <= 92.4\nentropy = 0.5\nsamples = 68\nvalue = [7, 61]"] ;
408 -> 432 ;
433 [label="job_retired <= 0.5\nentropy = 0.7\nsamples = 5\nvalue = [4, 1]"] ;
432 -> 433 ;
434 [label="entropy = 0.0\nsamples = 4\nvalue = [4, 0]"] ;
433 -> 434 ;
435 [label="entropy = 0.0\nsamples = 1\nvalue = [0, 1]"] ;
433 -> 435 ;
436 [label="cons.conf.idx <= -40.0\nentropy = 0.3\nsamples = 63\nvalue = [3, 60]"] ;
432 -> 436 ;
437 [label="previous <= 1.9\nentropy = 0.6\nsamples = 20\nvalue = [3, 17]"] ;
436 -> 437 ;
438 [label="entropy = 0.0\nsamples = 15\nvalue = [0, 15]"] ;
437 -> 438 ;
439 [label="education_high.school <= 0.5\nentropy = 1.0\nsamples = 5\nvalue = [3, 2]"] ;
437 -> 439 ;
440 [label="entropy = 0.0\nsamples = 3\nvalue = [3, 0]"] ;
439 -> 440 ;
441 [label="entropy = 0.0\nsamples = 2\nvalue = [0, 2]"] ;
439 -> 441 ;
442 [label="entropy = 0.0\nsamples = 43\nvalue = [0, 43]"] ;
436 -> 442 ;
443 [label="euribor3m <= 0.8\nentropy = 0.8\nsamples = 4\nvalue = [3, 1]"] ;
407 -> 443 ;
444 [label="entropy = 0.0\nsamples = 1\nvalue = [0, 1]"] ;
443 -> 444 ;
445 [label="entropy = 0.0\nsamples = 3\nvalue = [3, 0]"] ;
443 -> 445 ;
446 [label="job_blue-collar <= 0.7\nentropy = 0.6\nsamples = 68\nvalue = [10, 58]"] ;
406 -> 446 ;
447 [label="euribor3m <= 1.0\nentropy = 0.5\nsamples = 64\nvalue = [7, 57]"] ;
446 -> 447 ;
448 [label="previous <= 4.5\nentropy = 0.4\nsamples = 60\nvalue = [4, 56]"] ;
447 -> 448 ;
449 [label="emp.var.rate <= -3.3\nentropy = 0.2\nsamples = 58\nvalue = [2, 56]"] ;
448 -> 449 ;
450 [label="pdays <= 5.7\nentropy = 0.7\nsamples = 11\nvalue = [2, 9]"] ;
449 -> 450 ;
451 [label="entropy = 0.0\nsamples = 8\nvalue = [0, 8]"] ;
450 -> 451 ;
452 [label="housing_no <= 0.5\nentropy = 0.9\nsamples = 3\nvalue = [2, 1]"] ;
450 -> 452 ;
453 [label="entropy = 0.0\nsamples = 2\nvalue = [2, 0]"] ;
452 -> 453 ;
454 [label="entropy = 0.0\nsamples = 1\nvalue = [0, 1]"] ;
452 -> 454 ;
455 [label="entropy = 0.0\nsamples = 47\nvalue = [0, 47]"] ;
449 -> 455 ;
456 [label="entropy = 0.0\nsamples = 2\nvalue = [2, 0]"] ;
448 -> 456 ;
457 [label="duration <= 130.3\nentropy = 0.8\nsamples = 4\nvalue = [3, 1]"] ;
447 -> 457 ;
458 [label="entropy = 0.0\nsamples = 1\nvalue = [0, 1]"] ;
457 -> 458 ;
459 [label="entropy = 0.0\nsamples = 3\nvalue = [3, 0]"] ;
457 -> 459 ;
460 [label="education_unknown <= 0.5\nentropy = 0.8\nsamples = 4\nvalue = [3, 1]"] ;
446 -> 460 ;
461 [label="entropy = 0.0\nsamples = 3\nvalue = [3, 0]"] ;
460 -> 461 ;
462 [label="entropy = 0.0\nsamples = 1\nvalue = [0, 1]"] ;
460 -> 462 ;
463 [label="duration <= 155.5\nentropy = 0.8\nsamples = 43\nvalue = [10, 33]"] ;
405 -> 463 ;
464 [label="entropy = 0.0\nsamples = 8\nvalue = [8, 0]"] ;
463 -> 464 ;
465 [label="day_of_week_thu <= 1.0\nentropy = 0.3\nsamples = 35\nvalue = [2, 33]"] ;
463 -> 465 ;
466 [label="entropy = 0.0\nsamples = 32\nvalue = [0, 32]"] ;
465 -> 466 ;
467 [label="duration <= 181.5\nentropy = 0.9\nsamples = 3\nvalue = [2, 1]"] ;
465 -> 467 ;
468 [label="entropy = 0.0\nsamples = 2\nvalue = [2, 0]"] ;
467 -> 468 ;
469 [label="entropy = 0.0\nsamples = 1\nvalue = [0, 1]"] ;
467 -> 469 ;
470 [label="duration <= 143.0\nentropy = 0.9\nsamples = 50\nvalue = [15, 35]"] ;
404 -> 470 ;
471 [label="entropy = 0.0\nsamples = 5\nvalue = [5, 0]"] ;
470 -> 471 ;
472 [label="education_professional.course <= 0.5\nentropy = 0.8\nsamples = 45\nvalue = [10, 35]"] ;
470 -> 472 ;
473 [label="pdays <= 6.9\nentropy = 0.7\nsamples = 43\nvalue = [8, 35]"] ;
472 -> 473 ;
474 [label="job_admin. <= 0.0\nentropy = 0.6\nsamples = 41\nvalue = [6, 35]"] ;
473 -> 474 ;
475 [label="duration <= 164.5\nentropy = 0.8\nsamples = 23\nvalue = [6, 17]"] ;
474 -> 475 ;
476 [label="duration <= 149.0\nentropy = 0.9\nsamples = 7\nvalue = [5, 2]"] ;
475 -> 476 ;
477 [label="entropy = 0.0\nsamples = 2\nvalue = [0, 2]"] ;
476 -> 477 ;
478 [label="entropy = 0.0\nsamples = 5\nvalue = [5, 0]"] ;
476 -> 478 ;
479 [label="euribor3m <= 1.0\nentropy = 0.3\nsamples = 16\nvalue = [1, 15]"] ;
475 -> 479 ;
480 [label="entropy = 0.0\nsamples = 15\nvalue = [0, 15]"] ;
479 -> 480 ;
481 [label="entropy = 0.0\nsamples = 1\nvalue = [1, 0]"] ;
479 -> 481 ;
482 [label="entropy = 0.0\nsamples = 18\nvalue = [0, 18]"] ;
474 -> 482 ;
483 [label="entropy = 0.0\nsamples = 2\nvalue = [2, 0]"] ;
473 -> 483 ;
484 [label="entropy = 0.0\nsamples = 2\nvalue = [2, 0]"] ;
472 -> 484 ;
485 [label="cons.conf.idx <= -46.2\nentropy = 0.4\nsamples = 11100\nvalue = [10282, 818]"] ;
1 -> 485 ;
486 [label="cons.price.idx <= 93.1\nentropy = 1.0\nsamples = 1228\nvalue = [588, 640]"] ;
485 -> 486 ;
487 [label="month_mar <= 1.0\nentropy = 0.5\nsamples = 504\nvalue = [63, 441]"] ;
486 -> 487 ;
488 [label="entropy = 0.0\nsamples = 323\nvalue = [0, 323]"] ;
487 -> 488 ;
489 [label="duration <= 105.0\nentropy = 0.9\nsamples = 181\nvalue = [63, 118]"] ;
487 -> 489 ;
490 [label="job_student <= 0.0\nentropy = 0.9\nsamples = 66\nvalue = [44, 22]"] ;
489 -> 490 ;
491 [label="job_unemployed <= 0.4\nentropy = 0.7\nsamples = 48\nvalue = [40, 8]"] ;
490 -> 491 ;
492 [label="day_of_week_mon <= 0.5\nentropy = 0.6\nsamples = 46\nvalue = [40, 6]"] ;
491 -> 492 ;
493 [label="education_university.degree <= 0.2\nentropy = 0.7\nsamples = 32\nvalue = [26, 6]"] ;
492 -> 493 ;
494 [label="job_technician <= 0.5\nentropy = 0.5\nsamples = 21\nvalue = [19, 2]"] ;
493 -> 494 ;
495 [label="duration <= 100.5\nentropy = 0.3\nsamples = 19\nvalue = [18, 1]"] ;
494 -> 495 ;
496 [label="entropy = 0.0\nsamples = 15\nvalue = [15, 0]"] ;
495 -> 496 ;
497 [label="education_basic <= 0.5\nentropy = 0.8\nsamples = 4\nvalue = [3, 1]"] ;
495 -> 497 ;
498 [label="entropy = 0.0\nsamples = 3\nvalue = [3, 0]"] ;
497 -> 498 ;
499 [label="entropy = 0.0\nsamples = 1\nvalue = [0, 1]"] ;
497 -> 499 ;
500 [label="housing_no <= 0.5\nentropy = 1.0\nsamples = 2\nvalue = [1, 1]"] ;
494 -> 500 ;
501 [label="entropy = 0.0\nsamples = 1\nvalue = [0, 1]"] ;
500 -> 501 ;
502 [label="entropy = 0.0\nsamples = 1\nvalue = [1, 0]"] ;
500 -> 502 ;
503 [label="campaign <= 2.2\nentropy = 0.9\nsamples = 11\nvalue = [7, 4]"] ;
493 -> 503 ;
504 [label="age <= 28.5\nentropy = 0.5\nsamples = 8\nvalue = [7, 1]"] ;
503 -> 504 ;
505 [label="day_of_week_wed <= 0.5\nentropy = 1.0\nsamples = 2\nvalue = [1, 1]"] ;
504 -> 505 ;
506 [label="entropy = 0.0\nsamples = 1\nvalue = [1, 0]"] ;
505 -> 506 ;
507 [label="entropy = 0.0\nsamples = 1\nvalue = [0, 1]"] ;
505 -> 507 ;
508 [label="entropy = 0.0\nsamples = 6\nvalue = [6, 0]"] ;
504 -> 508 ;
509 [label="entropy = 0.0\nsamples = 3\nvalue = [0, 3]"] ;
503 -> 509 ;
510 [label="entropy = 0.0\nsamples = 14\nvalue = [14, 0]"] ;
492 -> 510 ;
511 [label="entropy = 0.0\nsamples = 2\nvalue = [0, 2]"] ;
491 -> 511 ;
512 [label="job_student <= 1.0\nentropy = 0.8\nsamples = 18\nvalue = [4, 14]"] ;
490 -> 512 ;
513 [label="entropy = 0.0\nsamples = 12\nvalue = [0, 12]"] ;
512 -> 513 ;
514 [label="duration <= 79.0\nentropy = 0.9\nsamples = 6\nvalue = [4, 2]"] ;
512 -> 514 ;
515 [label="entropy = 0.0\nsamples = 4\nvalue = [4, 0]"] ;
514 -> 515 ;
516 [label="entropy = 0.0\nsamples = 2\nvalue = [0, 2]"] ;
514 -> 516 ;
517 [label="loan_no <= 0.0\nentropy = 0.6\nsamples = 115\nvalue = [19, 96]"] ;
489 -> 517 ;
518 [label="duration <= 180.5\nentropy = 0.7\nsamples = 10\nvalue = [8, 2]"] ;
517 -> 518 ;
519 [label="entropy = 0.0\nsamples = 8\nvalue = [8, 0]"] ;
518 -> 519 ;
520 [label="entropy = 0.0\nsamples = 2\nvalue = [0, 2]"] ;
518 -> 520 ;
521 [label="campaign <= 4.0\nentropy = 0.5\nsamples = 105\nvalue = [11, 94]"] ;
517 -> 521 ;
522 [label="day_of_week_fri <= 1.0\nentropy = 0.4\nsamples = 101\nvalue = [7, 94]"] ;
521 -> 522 ;
523 [label="duration <= 164.7\nentropy = 0.3\nsamples = 97\nvalue = [5, 92]"] ;
522 -> 523 ;
524 [label="duration <= 160.5\nentropy = 0.5\nsamples = 45\nvalue = [5, 40]"] ;
523 -> 524 ;
525 [label="contact_telephone <= 0.5\nentropy = 0.4\nsamples = 43\nvalue = [3, 40]"] ;
524 -> 525 ;
526 [label="housing_yes <= 0.0\nentropy = 0.3\nsamples = 42\nvalue = [2, 40]"] ;
525 -> 526 ;
527 [label="campaign <= 1.5\nentropy = 0.8\nsamples = 8\nvalue = [2, 6]"] ;
526 -> 527 ;
528 [label="entropy = 0.0\nsamples = 6\nvalue = [0, 6]"] ;
527 -> 528 ;
529 [label="entropy = 0.0\nsamples = 2\nvalue = [2, 0]"] ;
527 -> 529 ;
530 [label="entropy = 0.0\nsamples = 34\nvalue = [0, 34]"] ;
526 -> 530 ;
531 [label="entropy = 0.0\nsamples = 1\nvalue = [1, 0]"] ;
525 -> 531 ;
532 [label="entropy = 0.0\nsamples = 2\nvalue = [2, 0]"] ;
524 -> 532 ;
533 [label="entropy = 0.0\nsamples = 52\nvalue = [0, 52]"] ;
523 -> 533 ;
534 [label="job_admin. <= 0.5\nentropy = 1.0\nsamples = 4\nvalue = [2, 2]"] ;
522 -> 534 ;
535 [label="entropy = 0.0\nsamples = 2\nvalue = [0, 2]"] ;
534 -> 535 ;
536 [label="entropy = 0.0\nsamples = 2\nvalue = [2, 0]"] ;
534 -> 536 ;
537 [label="entropy = 0.0\nsamples = 4\nvalue = [4, 0]"] ;
521 -> 537 ;
538 [label="day_of_week_tue <= 0.0\nentropy = 0.8\nsamples = 724\nvalue = [525, 199]"] ;
486 -> 538 ;
539 [label="duration <= 96.5\nentropy = 0.7\nsamples = 587\nvalue = [489, 98]"] ;
538 -> 539 ;
540 [label="job_entrepreneur <= 0.5\nentropy = 0.0\nsamples = 222\nvalue = [221, 1]"] ;
539 -> 540 ;
541 [label="entropy = 0.0\nsamples = 209\nvalue = [209, 0]"] ;
540 -> 541 ;
542 [label="age <= 36.5\nentropy = 0.4\nsamples = 13\nvalue = [12, 1]"] ;
540 -> 542 ;
543 [label="entropy = 0.0\nsamples = 1\nvalue = [0, 1]"] ;
542 -> 543 ;
544 [label="entropy = 0.0\nsamples = 12\nvalue = [12, 0]"] ;
542 -> 544 ;
545 [label="job_blue-collar <= 0.5\nentropy = 0.8\nsamples = 365\nvalue = [268, 97]"] ;
539 -> 545 ;
546 [label="day_of_week_wed <= 0.0\nentropy = 0.9\nsamples = 298\nvalue = [201, 97]"] ;
545 -> 546 ;
547 [label="education_university.degree <= 0.0\nentropy = 0.8\nsamples = 231\nvalue = [175, 56]"] ;
546 -> 547 ;
548 [label="day_of_week_mon <= 0.0\nentropy = 0.6\nsamples = 137\nvalue = [119, 18]"] ;
547 -> 548 ;
549 [label="education_unknown <= 0.5\nentropy = 0.3\nsamples = 86\nvalue = [82, 4]"] ;
548 -> 549 ;
550 [label="duration <= 205.0\nentropy = 0.2\nsamples = 81\nvalue = [79, 2]"] ;
549 -> 550 ;
551 [label="campaign <= 3.5\nentropy = 0.1\nsamples = 80\nvalue = [79, 1]"] ;
550 -> 551 ;
552 [label="entropy = 0.0\nsamples = 78\nvalue = [78, 0]"] ;
551 -> 552 ;
553 [label="marital_single <= 0.5\nentropy = 1.0\nsamples = 2\nvalue = [1, 1]"] ;
551 -> 553 ;
554 [label="entropy = 0.0\nsamples = 1\nvalue = [1, 0]"] ;
553 -> 554 ;
555 [label="entropy = 0.0\nsamples = 1\nvalue = [0, 1]"] ;
553 -> 555 ;
556 [label="entropy = 0.0\nsamples = 1\nvalue = [0, 1]"] ;
550 -> 556 ;
557 [label="euribor3m <= 1.4\nentropy = 1.0\nsamples = 5\nvalue = [3, 2]"] ;
549 -> 557 ;
558 [label="entropy = 0.0\nsamples = 2\nvalue = [2, 0]"] ;
557 -> 558 ;
559 [label="previous <= 0.5\nentropy = 0.9\nsamples = 3\nvalue = [1, 2]"] ;
557 -> 559 ;
560 [label="entropy = 0.0\nsamples = 2\nvalue = [0, 2]"] ;
559 -> 560 ;
561 [label="entropy = 0.0\nsamples = 1\nvalue = [1, 0]"] ;
559 -> 561 ;
562 [label="campaign <= 1.9\nentropy = 0.8\nsamples = 51\nvalue = [37, 14]"] ;
548 -> 562 ;
563 [label="job_services <= 0.5\nentropy = 1.0\nsamples = 24\nvalue = [11, 13]"] ;
562 -> 563 ;
564 [label="job_technician <= 0.5\nentropy = 0.9\nsamples = 19\nvalue = [6, 13]"] ;
563 -> 564 ;
565 [label="euribor3m <= 1.5\nentropy = 0.7\nsamples = 16\nvalue = [3, 13]"] ;
564 -> 565 ;
566 [label="poutcome_success <= 0.5\nentropy = 0.4\nsamples = 14\nvalue = [1, 13]"] ;
565 -> 566 ;
567 [label="entropy = 0.0\nsamples = 13\nvalue = [0, 13]"] ;
566 -> 567 ;
568 [label="entropy = 0.0\nsamples = 1\nvalue = [1, 0]"] ;
566 -> 568 ;
569 [label="entropy = 0.0\nsamples = 2\nvalue = [2, 0]"] ;
565 -> 569 ;
570 [label="entropy = 0.0\nsamples = 3\nvalue = [3, 0]"] ;
564 -> 570 ;
571 [label="entropy = 0.0\nsamples = 5\nvalue = [5, 0]"] ;
563 -> 571 ;
572 [label="day_of_week_thu <= 0.5\nentropy = 0.2\nsamples = 27\nvalue = [26, 1]"] ;
562 -> 572 ;
573 [label="entropy = 0.0\nsamples = 26\nvalue = [26, 0]"] ;
572 -> 573 ;
574 [label="entropy = 0.0\nsamples = 1\nvalue = [0, 1]"] ;
572 -> 574 ;
575 [label="education_university.degree <= 1.0\nentropy = 1.0\nsamples = 94\nvalue = [56, 38]"] ;
547 -> 575 ;
576 [label="entropy = 0.0\nsamples = 9\nvalue = [0, 9]"] ;
575 -> 576 ;
577 [label="age <= 38.5\nentropy = 0.9\nsamples = 85\nvalue = [56, 29]"] ;
575 -> 577 ;
578 [label="job_entrepreneur <= 0.0\nentropy = 1.0\nsamples = 57\nvalue = [29, 28]"] ;
577 -> 578 ;
579 [label="duration <= 163.5\nentropy = 1.0\nsamples = 48\nvalue = [29, 19]"] ;
578 -> 579 ;
580 [label="job_management <= 0.1\nentropy = 1.0\nsamples = 33\nvalue = [15, 18]"] ;
579 -> 580 ;
581 [label="duration <= 152.2\nentropy = 1.0\nsamples = 25\nvalue = [15, 10]"] ;
580 -> 581 ;
582 [label="age <= 36.5\nentropy = 0.8\nsamples = 19\nvalue = [14, 5]"] ;
581 -> 582 ;
583 [label="euribor3m <= 1.4\nentropy = 0.7\nsamples = 17\nvalue = [14, 3]"] ;
582 -> 583 ;
584 [label="job_admin. <= 0.5\nentropy = 0.5\nsamples = 16\nvalue = [14, 2]"] ;
583 -> 584 ;
585 [label="entropy = 0.0\nsamples = 8\nvalue = [8, 0]"] ;
584 -> 585 ;
586 [label="marital_married <= 0.5\nentropy = 0.8\nsamples = 8\nvalue = [6, 2]"] ;
584 -> 586 ;
587 [label="duration <= 111.5\nentropy = 1.0\nsamples = 4\nvalue = [2, 2]"] ;
586 -> 587 ;
588 [label="entropy = 0.0\nsamples = 2\nvalue = [2, 0]"] ;
587 -> 588 ;
589 [label="entropy = 0.0\nsamples = 2\nvalue = [0, 2]"] ;
587 -> 589 ;
590 [label="entropy = 0.0\nsamples = 4\nvalue = [4, 0]"] ;
586 -> 590 ;
591 [label="entropy = 0.0\nsamples = 1\nvalue = [0, 1]"] ;
583 -> 591 ;
592 [label="entropy = 0.0\nsamples = 2\nvalue = [0, 2]"] ;
582 -> 592 ;
593 [label="euribor3m <= 1.4\nentropy = 0.7\nsamples = 6\nvalue = [1, 5]"] ;
581 -> 593 ;
594 [label="entropy = 0.0\nsamples = 5\nvalue = [0, 5]"] ;
593 -> 594 ;
595 [label="entropy = 0.0\nsamples = 1\nvalue = [1, 0]"] ;
593 -> 595 ;
596 [label="entropy = 0.0\nsamples = 8\nvalue = [0, 8]"] ;
580 -> 596 ;
597 [label="loan_yes <= 0.5\nentropy = 0.4\nsamples = 15\nvalue = [14, 1]"] ;
579 -> 597 ;
598 [label="entropy = 0.0\nsamples = 12\nvalue = [12, 0]"] ;
597 -> 598 ;
599 [label="euribor3m <= 1.4\nentropy = 0.9\nsamples = 3\nvalue = [2, 1]"] ;
597 -> 599 ;
600 [label="entropy = 0.0\nsamples = 1\nvalue = [0, 1]"] ;
599 -> 600 ;
601 [label="entropy = 0.0\nsamples = 2\nvalue = [2, 0]"] ;
599 -> 601 ;
602 [label="entropy = 0.0\nsamples = 9\nvalue = [0, 9]"] ;
578 -> 602 ;
603 [label="euribor3m <= 1.4\nentropy = 0.2\nsamples = 28\nvalue = [27, 1]"] ;
577 -> 603 ;
604 [label="entropy = 0.0\nsamples = 24\nvalue = [24, 0]"] ;
603 -> 604 ;
605 [label="euribor3m <= 1.4\nentropy = 0.8\nsamples = 4\nvalue = [3, 1]"] ;
603 -> 605 ;
606 [label="entropy = 0.0\nsamples = 1\nvalue = [0, 1]"] ;
605 -> 606 ;
607 [label="entropy = 0.0\nsamples = 3\nvalue = [3, 0]"] ;
605 -> 607 ;
608 [label="day_of_week_wed <= 1.0\nentropy = 1.0\nsamples = 67\nvalue = [26, 41]"] ;
546 -> 608 ;
609 [label="entropy = 0.0\nsamples = 27\nvalue = [0, 27]"] ;
608 -> 609 ;
610 [label="campaign <= 2.5\nentropy = 0.9\nsamples = 40\nvalue = [26, 14]"] ;
608 -> 610 ;
611 [label="duration <= 114.3\nentropy = 1.0\nsamples = 30\nvalue = [16, 14]"] ;
610 -> 611 ;
612 [label="entropy = 0.0\nsamples = 6\nvalue = [6, 0]"] ;
611 -> 612 ;
613 [label="duration <= 169.0\nentropy = 1.0\nsamples = 24\nvalue = [10, 14]"] ;
611 -> 613 ;
614 [label="age <= 55.9\nentropy = 0.9\nsamples = 20\nvalue = [6, 14]"] ;
613 -> 614 ;
615 [label="marital_single <= 0.5\nentropy = 1.0\nsamples = 12\nvalue = [6, 6]"] ;
614 -> 615 ;
616 [label="entropy = 0.0\nsamples = 5\nvalue = [5, 0]"] ;
615 -> 616 ;
617 [label="age <= 23.0\nentropy = 0.6\nsamples = 7\nvalue = [1, 6]"] ;
615 -> 617 ;
618 [label="entropy = 0.0\nsamples = 1\nvalue = [1, 0]"] ;
617 -> 618 ;
619 [label="entropy = 0.0\nsamples = 6\nvalue = [0, 6]"] ;
617 -> 619 ;
620 [label="entropy = 0.0\nsamples = 8\nvalue = [0, 8]"] ;
614 -> 620 ;
621 [label="entropy = 0.0\nsamples = 4\nvalue = [4, 0]"] ;
613 -> 621 ;
622 [label="entropy = 0.0\nsamples = 10\nvalue = [10, 0]"] ;
610 -> 622 ;
623 [label="entropy = 0.0\nsamples = 67\nvalue = [67, 0]"] ;
545 -> 623 ;
624 [label="day_of_week_tue <= 1.0\nentropy = 0.8\nsamples = 137\nvalue = [36, 101]"] ;
538 -> 624 ;
625 [label="entropy = 0.0\nsamples = 75\nvalue = [0, 75]"] ;
624 -> 625 ;
626 [label="age <= 61.2\nentropy = 1.0\nsamples = 62\nvalue = [36, 26]"] ;
624 -> 626 ;
627 [label="age <= 34.5\nentropy = 0.7\nsamples = 42\nvalue = [33, 9]"] ;
626 -> 627 ;
628 [label="duration <= 107.5\nentropy = 1.0\nsamples = 18\nvalue = [11, 7]"] ;
627 -> 628 ;
629 [label="marital_single <= 0.5\nentropy = 0.5\nsamples = 10\nvalue = [9, 1]"] ;
628 -> 629 ;
630 [label="entropy = 0.0\nsamples = 1\nvalue = [0, 1]"] ;
629 -> 630 ;
631 [label="entropy = 0.0\nsamples = 9\nvalue = [9, 0]"] ;
629 -> 631 ;
632 [label="education_university.degree <= 0.3\nentropy = 0.8\nsamples = 8\nvalue = [2, 6]"] ;
628 -> 632 ;
633 [label="euribor3m <= 1.4\nentropy = 1.0\nsamples = 4\nvalue = [2, 2]"] ;
632 -> 633 ;
634 [label="entropy = 0.0\nsamples = 2\nvalue = [0, 2]"] ;
633 -> 634 ;
635 [label="entropy = 0.0\nsamples = 2\nvalue = [2, 0]"] ;
633 -> 635 ;
636 [label="entropy = 0.0\nsamples = 4\nvalue = [0, 4]"] ;
632 -> 636 ;
637 [label="euribor3m <= 1.4\nentropy = 0.4\nsamples = 24\nvalue = [22, 2]"] ;
627 -> 637 ;
638 [label="euribor3m <= 1.4\nentropy = 1.0\nsamples = 5\nvalue = [3, 2]"] ;
637 -> 638 ;
639 [label="entropy = 0.0\nsamples = 2\nvalue = [2, 0]"] ;
638 -> 639 ;
640 [label="previous <= 0.5\nentropy = 0.9\nsamples = 3\nvalue = [1, 2]"] ;
638 -> 640 ;
641 [label="education_university.degree <= 0.5\nentropy = 1.0\nsamples = 2\nvalue = [1, 1]"] ;
640 -> 641 ;
642 [label="entropy = 0.0\nsamples = 1\nvalue = [0, 1]"] ;
641 -> 642 ;
643 [label="entropy = 0.0\nsamples = 1\nvalue = [1, 0]"] ;
641 -> 643 ;
644 [label="entropy = 0.0\nsamples = 1\nvalue = [0, 1]"] ;
640 -> 644 ;
645 [label="entropy = 0.0\nsamples = 19\nvalue = [19, 0]"] ;
637 -> 645 ;
646 [label="housing_no <= 1.0\nentropy = 0.6\nsamples = 20\nvalue = [3, 17]"] ;
626 -> 646 ;
647 [label="entropy = 0.0\nsamples = 15\nvalue = [0, 15]"] ;
646 -> 647 ;
648 [label="contact_cellular <= 0.5\nentropy = 1.0\nsamples = 5\nvalue = [3, 2]"] ;
646 -> 648 ;
649 [label="entropy = 0.0\nsamples = 2\nvalue = [2, 0]"] ;
648 -> 649 ;
650 [label="age <= 80.0\nentropy = 0.9\nsamples = 3\nvalue = [1, 2]"] ;
648 -> 650 ;
651 [label="entropy = 0.0\nsamples = 2\nvalue = [0, 2]"] ;
650 -> 651 ;
652 [label="entropy = 0.0\nsamples = 1\nvalue = [1, 0]"] ;
650 -> 652 ;
653 [label="month_oct <= 0.0\nentropy = 0.1\nsamples = 9872\nvalue = [9694, 178]"] ;
485 -> 653 ;
654 [label="pdays <= 3.5\nentropy = 0.0\nsamples = 9733\nvalue = [9684, 49]"] ;
653 -> 654 ;
655 [label="duration <= 186.0\nentropy = 1.0\nsamples = 30\nvalue = [13, 17]"] ;
654 -> 655 ;
656 [label="duration <= 111.5\nentropy = 0.6\nsamples = 15\nvalue = [13, 2]"] ;
655 -> 656 ;
657 [label="entropy = 0.0\nsamples = 11\nvalue = [11, 0]"] ;
656 -> 657 ;
658 [label="duration <= 147.0\nentropy = 1.0\nsamples = 4\nvalue = [2, 2]"] ;
656 -> 658 ;
659 [label="entropy = 0.0\nsamples = 2\nvalue = [0, 2]"] ;
658 -> 659 ;
660 [label="entropy = 0.0\nsamples = 2\nvalue = [2, 0]"] ;
658 -> 660 ;
661 [label="entropy = 0.0\nsamples = 15\nvalue = [0, 15]"] ;
655 -> 661 ;
662 [label="emp.var.rate <= 1.1\nentropy = 0.0\nsamples = 9703\nvalue = [9671, 32]"] ;
654 -> 662 ;
663 [label="euribor3m <= 4.2\nentropy = 0.1\nsamples = 2702\nvalue = [2674, 28]"] ;
662 -> 663 ;
664 [label="euribor3m <= 1.3\nentropy = 0.1\nsamples = 2681\nvalue = [2665, 16]"] ;
663 -> 664 ;
665 [label="duration <= 107.5\nentropy = 0.2\nsamples = 600\nvalue = [587, 13]"] ;
664 -> 665 ;
666 [label="entropy = 0.0\nsamples = 325\nvalue = [325, 0]"] ;
665 -> 666 ;
667 [label="day_of_week_wed <= 0.0\nentropy = 0.3\nsamples = 275\nvalue = [262, 13]"] ;
665 -> 667 ;
668 [label="age <= 36.5\nentropy = 0.2\nsamples = 262\nvalue = [254, 8]"] ;
667 -> 668 ;
669 [label="day_of_week_tue <= 0.5\nentropy = 0.3\nsamples = 153\nvalue = [145, 8]"] ;
668 -> 669 ;
670 [label="housing_no <= 0.5\nentropy = 0.2\nsamples = 137\nvalue = [133, 4]"] ;
669 -> 670 ;
671 [label="entropy = 0.0\nsamples = 74\nvalue = [74, 0]"] ;
670 -> 671 ;
672 [label="age <= 35.5\nentropy = 0.3\nsamples = 63\nvalue = [59, 4]"] ;
670 -> 672 ;
673 [label="marital_single <= 0.5\nentropy = 0.3\nsamples = 61\nvalue = [58, 3]"] ;
672 -> 673 ;
674 [label="entropy = 0.0\nsamples = 32\nvalue = [32, 0]"] ;
673 -> 674 ;
675 [label="duration <= 149.5\nentropy = 0.5\nsamples = 29\nvalue = [26, 3]"] ;
673 -> 675 ;
676 [label="entropy = 0.0\nsamples = 12\nvalue = [12, 0]"] ;
675 -> 676 ;
677 [label="duration <= 159.5\nentropy = 0.7\nsamples = 17\nvalue = [14, 3]"] ;
675 -> 677 ;
678 [label="entropy = 0.0\nsamples = 1\nvalue = [0, 1]"] ;
677 -> 678 ;
679 [label="previous <= 0.5\nentropy = 0.5\nsamples = 16\nvalue = [14, 2]"] ;
677 -> 679 ;
680 [label="entropy = 0.0\nsamples = 8\nvalue = [8, 0]"] ;
679 -> 680 ;
681 [label="duration <= 198.5\nentropy = 0.8\nsamples = 8\nvalue = [6, 2]"] ;
679 -> 681 ;
682 [label="job_blue-collar <= 0.5\nentropy = 0.6\nsamples = 7\nvalue = [6, 1]"] ;
681 -> 682 ;
683 [label="entropy = 0.0\nsamples = 6\nvalue = [6, 0]"] ;
682 -> 683 ;
684 [label="entropy = 0.0\nsamples = 1\nvalue = [0, 1]"] ;
682 -> 684 ;
685 [label="entropy = 0.0\nsamples = 1\nvalue = [0, 1]"] ;
681 -> 685 ;
686 [label="poutcome_nonexistent <= 0.5\nentropy = 1.0\nsamples = 2\nvalue = [1, 1]"] ;
672 -> 686 ;
687 [label="entropy = 0.0\nsamples = 1\nvalue = [1, 0]"] ;
686 -> 687 ;
688 [label="entropy = 0.0\nsamples = 1\nvalue = [0, 1]"] ;
686 -> 688 ;
689 [label="loan_no <= 0.8\nentropy = 0.8\nsamples = 16\nvalue = [12, 4]"] ;
669 -> 689 ;
690 [label="entropy = 0.0\nsamples = 3\nvalue = [0, 3]"] ;
689 -> 690 ;
691 [label="duration <= 202.5\nentropy = 0.4\nsamples = 13\nvalue = [12, 1]"] ;
689 -> 691 ;
692 [label="entropy = 0.0\nsamples = 12\nvalue = [12, 0]"] ;
691 -> 692 ;
693 [label="entropy = 0.0\nsamples = 1\nvalue = [0, 1]"] ;
691 -> 693 ;
694 [label="entropy = 0.0\nsamples = 109\nvalue = [109, 0]"] ;
668 -> 694 ;
695 [label="job_admin. <= 1.0\nentropy = 1.0\nsamples = 13\nvalue = [8, 5]"] ;
667 -> 695 ;
696 [label="education_basic <= 1.0\nentropy = 0.9\nsamples = 7\nvalue = [2, 5]"] ;
695 -> 696 ;
697 [label="entropy = 0.0\nsamples = 4\nvalue = [0, 4]"] ;
696 -> 697 ;
698 [label="job_blue-collar <= 0.5\nentropy = 0.9\nsamples = 3\nvalue = [2, 1]"] ;
696 -> 698 ;
699 [label="entropy = 0.0\nsamples = 2\nvalue = [2, 0]"] ;
698 -> 699 ;
700 [label="entropy = 0.0\nsamples = 1\nvalue = [0, 1]"] ;
698 -> 700 ;
701 [label="entropy = 0.0\nsamples = 6\nvalue = [6, 0]"] ;
695 -> 701 ;
702 [label="job_housemaid <= 0.5\nentropy = 0.0\nsamples = 2081\nvalue = [2078, 3]"] ;
664 -> 702 ;
703 [label="age <= 59.5\nentropy = 0.0\nsamples = 2045\nvalue = [2044, 1]"] ;
702 -> 703 ;
704 [label="entropy = 0.0\nsamples = 2039\nvalue = [2039, 0]"] ;
703 -> 704 ;
705 [label="poutcome_nonexistent <= 0.5\nentropy = 0.7\nsamples = 6\nvalue = [5, 1]"] ;
703 -> 705 ;
706 [label="entropy = 0.0\nsamples = 1\nvalue = [0, 1]"] ;
705 -> 706 ;
707 [label="entropy = 0.0\nsamples = 5\nvalue = [5, 0]"] ;
705 -> 707 ;
708 [label="contact_cellular <= 0.5\nentropy = 0.3\nsamples = 36\nvalue = [34, 2]"] ;
702 -> 708 ;
709 [label="age <= 45.4\nentropy = 1.0\nsamples = 5\nvalue = [3, 2]"] ;
708 -> 709 ;
710 [label="entropy = 0.0\nsamples = 3\nvalue = [3, 0]"] ;
709 -> 710 ;
711 [label="entropy = 0.0\nsamples = 2\nvalue = [0, 2]"] ;
709 -> 711 ;
712 [label="entropy = 0.0\nsamples = 31\nvalue = [31, 0]"] ;
708 -> 712 ;
713 [label="duration <= 141.5\nentropy = 1.0\nsamples = 21\nvalue = [9, 12]"] ;
663 -> 713 ;
714 [label="entropy = 0.0\nsamples = 9\nvalue = [9, 0]"] ;
713 -> 714 ;
715 [label="entropy = 0.0\nsamples = 12\nvalue = [0, 12]"] ;
713 -> 715 ;
716 [label="duration <= 190.3\nentropy = 0.0\nsamples = 7001\nvalue = [6997, 4]"] ;
662 -> 716 ;
717 [label="entropy = 0.0\nsamples = 6522\nvalue = [6522, 0]"] ;
716 -> 717 ;
718 [label="duration <= 194.0\nentropy = 0.1\nsamples = 479\nvalue = [475, 4]"] ;
716 -> 718 ;
719 [label="month_aug <= 0.4\nentropy = 0.3\nsamples = 89\nvalue = [85, 4]"] ;
718 -> 719 ;
720 [label="entropy = 0.0\nsamples = 72\nvalue = [72, 0]"] ;
719 -> 720 ;
721 [label="duration <= 192.5\nentropy = 0.8\nsamples = 17\nvalue = [13, 4]"] ;
719 -> 721 ;
722 [label="cons.price.idx <= 93.5\nentropy = 0.4\nsamples = 13\nvalue = [12, 1]"] ;
721 -> 722 ;
723 [label="entropy = 0.0\nsamples = 12\nvalue = [12, 0]"] ;
722 -> 723 ;
724 [label="entropy = 0.0\nsamples = 1\nvalue = [0, 1]"] ;
722 -> 724 ;
725 [label="default_unknown <= 0.5\nentropy = 0.8\nsamples = 4\nvalue = [1, 3]"] ;
721 -> 725 ;
726 [label="entropy = 0.0\nsamples = 3\nvalue = [0, 3]"] ;
725 -> 726 ;
727 [label="entropy = 0.0\nsamples = 1\nvalue = [1, 0]"] ;
725 -> 727 ;
728 [label="entropy = 0.0\nsamples = 390\nvalue = [390, 0]"] ;
718 -> 728 ;
729 [label="duration <= 83.0\nentropy = 0.4\nsamples = 139\nvalue = [10, 129]"] ;
653 -> 729 ;
730 [label="job_housemaid <= 0.2\nentropy = 1.0\nsamples = 18\nvalue = [9, 9]"] ;
729 -> 730 ;
731 [label="entropy = 0.0\nsamples = 9\nvalue = [9, 0]"] ;
730 -> 731 ;
732 [label="entropy = 0.0\nsamples = 9\nvalue = [0, 9]"] ;
730 -> 732 ;
733 [label="euribor3m <= 5.0\nentropy = 0.1\nsamples = 121\nvalue = [1, 120]"] ;
729 -> 733 ;
734 [label="entropy = 0.0\nsamples = 119\nvalue = [0, 119]"] ;
733 -> 734 ;
735 [label="loan_no <= 0.5\nentropy = 1.0\nsamples = 2\nvalue = [1, 1]"] ;
733 -> 735 ;
736 [label="entropy = 0.0\nsamples = 1\nvalue = [0, 1]"] ;
735 -> 736 ;
737 [label="entropy = 0.0\nsamples = 1\nvalue = [1, 0]"] ;
735 -> 737 ;
738 [label="nr.employed <= 5099.0\nentropy = 0.9\nsamples = 21649\nvalue = [6721, 14928]"] ;
0 -> 738 [labeldistance=2.5, labelangle=-45, headlabel="False"] ;
739 [label="poutcome_failure <= 1.0\nentropy = 0.3\nsamples = 6914\nvalue = [452, 6462]"] ;
738 -> 739 ;
740 [label="poutcome_nonexistent <= 1.0\nentropy = 0.3\nsamples = 6369\nvalue = [321, 6048]"] ;
739 -> 740 ;
741 [label="poutcome_success <= 1.0\nentropy = 0.1\nsamples = 3784\nvalue = [53, 3731]"] ;
740 -> 741 ;
742 [label="entropy = 0.0\nsamples = 1573\nvalue = [0, 1573]"] ;
741 -> 742 ;
743 [label="education_high.school <= 1.0\nentropy = 0.2\nsamples = 2211\nvalue = [53, 2158]"] ;
741 -> 743 ;
744 [label="education_high.school <= 0.0\nentropy = 0.1\nsamples = 2073\nvalue = [40, 2033]"] ;
743 -> 744 ;
745 [label="loan_yes <= 1.0\nentropy = 0.2\nsamples = 1532\nvalue = [40, 1492]"] ;
744 -> 745 ;
746 [label="loan_no <= 1.0\nentropy = 0.1\nsamples = 1467\nvalue = [31, 1436]"] ;
745 -> 746 ;
747 [label="entropy = 0.0\nsamples = 407\nvalue = [0, 407]"] ;
746 -> 747 ;
748 [label="day_of_week_fri <= 1.0\nentropy = 0.2\nsamples = 1060\nvalue = [31, 1029]"] ;
746 -> 748 ;
749 [label="day_of_week_mon <= 1.0\nentropy = 0.2\nsamples = 1006\nvalue = [23, 983]"] ;
748 -> 749 ;
750 [label="day_of_week_thu <= 1.0\nentropy = 0.1\nsamples = 934\nvalue = [15, 919]"] ;
749 -> 750 ;
751 [label="campaign <= 6.8\nentropy = 0.1\nsamples = 847\nvalue = [7, 840]"] ;
750 -> 751 ;
752 [label="day_of_week_tue <= 1.0\nentropy = 0.1\nsamples = 846\nvalue = [6, 840]"] ;
751 -> 752 ;
753 [label="day_of_week_wed <= 1.0\nentropy = 0.0\nsamples = 740\nvalue = [2, 738]"] ;
752 -> 753 ;
754 [label="entropy = 0.0\nsamples = 692\nvalue = [0, 692]"] ;
753 -> 754 ;
755 [label="duration <= 274.5\nentropy = 0.2\nsamples = 48\nvalue = [2, 46]"] ;
753 -> 755 ;
756 [label="education_university.degree <= 0.9\nentropy = 0.6\nsamples = 14\nvalue = [2, 12]"] ;
755 -> 756 ;
757 [label="entropy = 0.0\nsamples = 9\nvalue = [0, 9]"] ;
756 -> 757 ;
758 [label="euribor3m <= 0.9\nentropy = 1.0\nsamples = 5\nvalue = [2, 3]"] ;
756 -> 758 ;
759 [label="entropy = 0.0\nsamples = 2\nvalue = [2, 0]"] ;
758 -> 759 ;
760 [label="entropy = 0.0\nsamples = 3\nvalue = [0, 3]"] ;
758 -> 760 ;
761 [label="entropy = 0.0\nsamples = 34\nvalue = [0, 34]"] ;
755 -> 761 ;
762 [label="job_technician <= 1.0\nentropy = 0.2\nsamples = 106\nvalue = [4, 102]"] ;
752 -> 762 ;
763 [label="duration <= 216.5\nentropy = 0.1\nsamples = 89\nvalue = [1, 88]"] ;
762 -> 763 ;
764 [label="previous <= 2.5\nentropy = 1.0\nsamples = 2\nvalue = [1, 1]"] ;
763 -> 764 ;
765 [label="entropy = 0.0\nsamples = 1\nvalue = [1, 0]"] ;
764 -> 765 ;
766 [label="entropy = 0.0\nsamples = 1\nvalue = [0, 1]"] ;
764 -> 766 ;
767 [label="entropy = 0.0\nsamples = 87\nvalue = [0, 87]"] ;
763 -> 767 ;
768 [label="cons.conf.idx <= -40.0\nentropy = 0.7\nsamples = 17\nvalue = [3, 14]"] ;
762 -> 768 ;
769 [label="entropy = 0.0\nsamples = 5\nvalue = [0, 5]"] ;
768 -> 769 ;
770 [label="euribor3m <= 0.7\nentropy = 0.8\nsamples = 12\nvalue = [3, 9]"] ;
768 -> 770 ;
771 [label="entropy = 0.0\nsamples = 5\nvalue = [0, 5]"] ;
770 -> 771 ;
772 [label="duration <= 450.5\nentropy = 1.0\nsamples = 7\nvalue = [3, 4]"] ;
770 -> 772 ;
773 [label="entropy = 0.0\nsamples = 2\nvalue = [2, 0]"] ;
772 -> 773 ;
774 [label="euribor3m <= 0.8\nentropy = 0.7\nsamples = 5\nvalue = [1, 4]"] ;
772 -> 774 ;
775 [label="entropy = 0.0\nsamples = 4\nvalue = [0, 4]"] ;
774 -> 775 ;
776 [label="entropy = 0.0\nsamples = 1\nvalue = [1, 0]"] ;
774 -> 776 ;
777 [label="entropy = 0.0\nsamples = 1\nvalue = [1, 0]"] ;
751 -> 777 ;
778 [label="housing_yes <= 1.0\nentropy = 0.4\nsamples = 87\nvalue = [8, 79]"] ;
750 -> 778 ;
779 [label="month_jun <= 0.5\nentropy = 0.1\nsamples = 49\nvalue = [1, 48]"] ;
778 -> 779 ;
780 [label="entropy = 0.0\nsamples = 48\nvalue = [0, 48]"] ;
779 -> 780 ;
781 [label="entropy = 0.0\nsamples = 1\nvalue = [1, 0]"] ;
779 -> 781 ;
782 [label="month_nov <= 0.5\nentropy = 0.7\nsamples = 38\nvalue = [7, 31]"] ;
778 -> 782 ;
783 [label="marital_single <= 0.9\nentropy = 0.6\nsamples = 36\nvalue = [5, 31]"] ;
782 -> 783 ;
784 [label="entropy = 0.0\nsamples = 17\nvalue = [0, 17]"] ;
783 -> 784 ;
785 [label="euribor3m <= 0.9\nentropy = 0.8\nsamples = 19\nvalue = [5, 14]"] ;
783 -> 785 ;
786 [label="education_university.degree <= 0.5\nentropy = 1.0\nsamples = 12\nvalue = [5, 7]"] ;
785 -> 786 ;
787 [label="entropy = 0.0\nsamples = 3\nvalue = [0, 3]"] ;
786 -> 787 ;
788 [label="euribor3m <= 0.8\nentropy = 1.0\nsamples = 9\nvalue = [5, 4]"] ;
786 -> 788 ;
789 [label="cons.price.idx <= 93.6\nentropy = 0.9\nsamples = 6\nvalue = [2, 4]"] ;
788 -> 789 ;
790 [label="duration <= 445.5\nentropy = 0.9\nsamples = 3\nvalue = [2, 1]"] ;
789 -> 790 ;
791 [label="entropy = 0.0\nsamples = 2\nvalue = [2, 0]"] ;
790 -> 791 ;
792 [label="entropy = 0.0\nsamples = 1\nvalue = [0, 1]"] ;
790 -> 792 ;
793 [label="entropy = 0.0\nsamples = 3\nvalue = [0, 3]"] ;
789 -> 793 ;
794 [label="entropy = 0.0\nsamples = 3\nvalue = [3, 0]"] ;
788 -> 794 ;
795 [label="entropy = 0.0\nsamples = 7\nvalue = [0, 7]"] ;
785 -> 795 ;
796 [label="entropy = 0.0\nsamples = 2\nvalue = [2, 0]"] ;
782 -> 796 ;
797 [label="pdays <= 4.0\nentropy = 0.5\nsamples = 72\nvalue = [8, 64]"] ;
749 -> 797 ;
798 [label="entropy = 0.0\nsamples = 24\nvalue = [0, 24]"] ;
797 -> 798 ;
799 [label="age <= 70.0\nentropy = 0.7\nsamples = 48\nvalue = [8, 40]"] ;
797 -> 799 ;
800 [label="education_basic <= 0.9\nentropy = 0.8\nsamples = 36\nvalue = [8, 28]"] ;
799 -> 800 ;
801 [label="pdays <= 6.1\nentropy = 0.6\nsamples = 29\nvalue = [4, 25]"] ;
800 -> 801 ;
802 [label="marital_married <= 0.2\nentropy = 0.8\nsamples = 16\nvalue = [4, 12]"] ;
801 -> 802 ;
803 [label="job_technician <= 0.5\nentropy = 1.0\nsamples = 10\nvalue = [4, 6]"] ;
802 -> 803 ;
804 [label="duration <= 1063.5\nentropy = 0.8\nsamples = 8\nvalue = [2, 6]"] ;
803 -> 804 ;
805 [label="month_sep <= 0.5\nentropy = 0.6\nsamples = 7\nvalue = [1, 6]"] ;
804 -> 805 ;
806 [label="entropy = 0.0\nsamples = 6\nvalue = [0, 6]"] ;
805 -> 806 ;
807 [label="entropy = 0.0\nsamples = 1\nvalue = [1, 0]"] ;
805 -> 807 ;
808 [label="entropy = 0.0\nsamples = 1\nvalue = [1, 0]"] ;
804 -> 808 ;
809 [label="entropy = 0.0\nsamples = 2\nvalue = [2, 0]"] ;
803 -> 809 ;
810 [label="entropy = 0.0\nsamples = 6\nvalue = [0, 6]"] ;
802 -> 810 ;
811 [label="entropy = 0.0\nsamples = 13\nvalue = [0, 13]"] ;
801 -> 811 ;
812 [label="housing_no <= 0.7\nentropy = 1.0\nsamples = 7\nvalue = [4, 3]"] ;
800 -> 812 ;
813 [label="euribor3m <= 0.7\nentropy = 0.8\nsamples = 4\nvalue = [1, 3]"] ;
812 -> 813 ;
814 [label="entropy = 0.0\nsamples = 1\nvalue = [1, 0]"] ;
813 -> 814 ;
815 [label="entropy = 0.0\nsamples = 3\nvalue = [0, 3]"] ;
813 -> 815 ;
816 [label="entropy = 0.0\nsamples = 3\nvalue = [3, 0]"] ;
812 -> 816 ;
817 [label="entropy = 0.0\nsamples = 12\nvalue = [0, 12]"] ;
799 -> 817 ;
818 [label="pdays <= 3.1\nentropy = 0.6\nsamples = 54\nvalue = [8, 46]"] ;
748 -> 818 ;
819 [label="campaign <= 1.7\nentropy = 0.9\nsamples = 16\nvalue = [5, 11]"] ;
818 -> 819 ;
820 [label="entropy = 0.0\nsamples = 4\nvalue = [0, 4]"] ;
819 -> 820 ;
821 [label="marital_married <= 0.5\nentropy = 1.0\nsamples = 12\nvalue = [5, 7]"] ;
819 -> 821 ;
822 [label="euribor3m <= 1.1\nentropy = 0.7\nsamples = 6\nvalue = [1, 5]"] ;
821 -> 822 ;
823 [label="entropy = 0.0\nsamples = 4\nvalue = [0, 4]"] ;
822 -> 823 ;
824 [label="job_admin. <= 0.5\nentropy = 1.0\nsamples = 2\nvalue = [1, 1]"] ;
822 -> 824 ;
825 [label="entropy = 0.0\nsamples = 1\nvalue = [1, 0]"] ;
824 -> 825 ;
826 [label="entropy = 0.0\nsamples = 1\nvalue = [0, 1]"] ;
824 -> 826 ;
827 [label="cons.conf.idx <= -37.9\nentropy = 0.9\nsamples = 6\nvalue = [4, 2]"] ;
821 -> 827 ;
828 [label="cons.price.idx <= 94.3\nentropy = 0.9\nsamples = 3\nvalue = [1, 2]"] ;
827 -> 828 ;
829 [label="entropy = 0.0\nsamples = 2\nvalue = [0, 2]"] ;
828 -> 829 ;
830 [label="entropy = 0.0\nsamples = 1\nvalue = [1, 0]"] ;
828 -> 830 ;
831 [label="entropy = 0.0\nsamples = 3\nvalue = [3, 0]"] ;
827 -> 831 ;
832 [label="age <= 72.6\nentropy = 0.4\nsamples = 38\nvalue = [3, 35]"] ;
818 -> 832 ;
833 [label="previous <= 3.0\nentropy = 0.2\nsamples = 32\nvalue = [1, 31]"] ;
832 -> 833 ;
834 [label="entropy = 0.0\nsamples = 30\nvalue = [0, 30]"] ;
833 -> 834 ;
835 [label="age <= 39.0\nentropy = 1.0\nsamples = 2\nvalue = [1, 1]"] ;
833 -> 835 ;
836 [label="entropy = 0.0\nsamples = 1\nvalue = [1, 0]"] ;
835 -> 836 ;
837 [label="entropy = 0.0\nsamples = 1\nvalue = [0, 1]"] ;
835 -> 837 ;
838 [label="pdays <= 6.5\nentropy = 0.9\nsamples = 6\nvalue = [2, 4]"] ;
832 -> 838 ;
839 [label="entropy = 0.0\nsamples = 4\nvalue = [0, 4]"] ;
838 -> 839 ;
840 [label="entropy = 0.0\nsamples = 2\nvalue = [2, 0]"] ;
838 -> 840 ;
841 [label="age <= 38.0\nentropy = 0.6\nsamples = 65\nvalue = [9, 56]"] ;
745 -> 841 ;
842 [label="job_technician <= 0.8\nentropy = 0.9\nsamples = 25\nvalue = [8, 17]"] ;
841 -> 842 ;
843 [label="euribor3m <= 0.8\nentropy = 0.8\nsamples = 22\nvalue = [5, 17]"] ;
842 -> 843 ;
844 [label="entropy = 0.0\nsamples = 12\nvalue = [0, 12]"] ;
843 -> 844 ;
845 [label="month_oct <= 0.1\nentropy = 1.0\nsamples = 10\nvalue = [5, 5]"] ;
843 -> 845 ;
846 [label="age <= 33.5\nentropy = 0.9\nsamples = 7\nvalue = [5, 2]"] ;
845 -> 846 ;
847 [label="entropy = 0.0\nsamples = 4\nvalue = [4, 0]"] ;
846 -> 847 ;
848 [label="nr.employed <= 5033.9\nentropy = 0.9\nsamples = 3\nvalue = [1, 2]"] ;
846 -> 848 ;
849 [label="entropy = 0.0\nsamples = 1\nvalue = [1, 0]"] ;
848 -> 849 ;
850 [label="entropy = 0.0\nsamples = 2\nvalue = [0, 2]"] ;
848 -> 850 ;
851 [label="entropy = 0.0\nsamples = 3\nvalue = [0, 3]"] ;
845 -> 851 ;
852 [label="entropy = 0.0\nsamples = 3\nvalue = [3, 0]"] ;
842 -> 852 ;
853 [label="job_housemaid <= 0.7\nentropy = 0.2\nsamples = 40\nvalue = [1, 39]"] ;
841 -> 853 ;
854 [label="entropy = 0.0\nsamples = 37\nvalue = [0, 37]"] ;
853 -> 854 ;
855 [label="day_of_week_thu <= 0.5\nentropy = 0.9\nsamples = 3\nvalue = [1, 2]"] ;
853 -> 855 ;
856 [label="entropy = 0.0\nsamples = 2\nvalue = [0, 2]"] ;
855 -> 856 ;
857 [label="entropy = 0.0\nsamples = 1\nvalue = [1, 0]"] ;
855 -> 857 ;
858 [label="entropy = 0.0\nsamples = 541\nvalue = [0, 541]"] ;
744 -> 858 ;
859 [label="housing_no <= 1.0\nentropy = 0.5\nsamples = 138\nvalue = [13, 125]"] ;
743 -> 859 ;
860 [label="cons.price.idx <= 94.7\nentropy = 0.2\nsamples = 100\nvalue = [4, 96]"] ;
859 -> 860 ;
861 [label="month_dec <= 0.5\nentropy = 0.1\nsamples = 97\nvalue = [2, 95]"] ;
860 -> 861 ;
862 [label="pdays <= 1.5\nentropy = 0.1\nsamples = 96\nvalue = [1, 95]"] ;
861 -> 862 ;
863 [label="entropy = 0.0\nsamples = 1\nvalue = [1, 0]"] ;
862 -> 863 ;
864 [label="entropy = 0.0\nsamples = 95\nvalue = [0, 95]"] ;
862 -> 864 ;
865 [label="entropy = 0.0\nsamples = 1\nvalue = [1, 0]"] ;
861 -> 865 ;
866 [label="marital_single <= 0.5\nentropy = 0.9\nsamples = 3\nvalue = [2, 1]"] ;
860 -> 866 ;
867 [label="entropy = 0.0\nsamples = 2\nvalue = [2, 0]"] ;
866 -> 867 ;
868 [label="entropy = 0.0\nsamples = 1\nvalue = [0, 1]"] ;
866 -> 868 ;
869 [label="campaign <= 2.0\nentropy = 0.8\nsamples = 38\nvalue = [9, 29]"] ;
859 -> 869 ;
870 [label="month_oct <= 1.0\nentropy = 0.5\nsamples = 27\nvalue = [3, 24]"] ;
869 -> 870 ;
871 [label="month_apr <= 0.5\nentropy = 0.3\nsamples = 23\nvalue = [1, 22]"] ;
870 -> 871 ;
872 [label="entropy = 0.0\nsamples = 22\nvalue = [0, 22]"] ;
871 -> 872 ;
873 [label="entropy = 0.0\nsamples = 1\nvalue = [1, 0]"] ;
871 -> 873 ;
874 [label="marital_single <= 0.5\nentropy = 1.0\nsamples = 4\nvalue = [2, 2]"] ;
870 -> 874 ;
875 [label="entropy = 0.0\nsamples = 1\nvalue = [1, 0]"] ;
874 -> 875 ;
876 [label="day_of_week_wed <= 0.5\nentropy = 0.9\nsamples = 3\nvalue = [1, 2]"] ;
874 -> 876 ;
877 [label="entropy = 0.0\nsamples = 2\nvalue = [0, 2]"] ;
876 -> 877 ;
878 [label="entropy = 0.0\nsamples = 1\nvalue = [1, 0]"] ;
876 -> 878 ;
879 [label="euribor3m <= 0.7\nentropy = 1.0\nsamples = 11\nvalue = [6, 5]"] ;
869 -> 879 ;
880 [label="entropy = 0.0\nsamples = 3\nvalue = [0, 3]"] ;
879 -> 880 ;
881 [label="month_oct <= 0.5\nentropy = 0.8\nsamples = 8\nvalue = [6, 2]"] ;
879 -> 881 ;
882 [label="entropy = 0.0\nsamples = 5\nvalue = [5, 0]"] ;
881 -> 882 ;
883 [label="duration <= 287.0\nentropy = 0.9\nsamples = 3\nvalue = [1, 2]"] ;
881 -> 883 ;
884 [label="entropy = 0.0\nsamples = 2\nvalue = [0, 2]"] ;
883 -> 884 ;
885 [label="entropy = 0.0\nsamples = 1\nvalue = [1, 0]"] ;
883 -> 885 ;
886 [label="contact_cellular <= 0.0\nentropy = 0.5\nsamples = 2585\nvalue = [268, 2317]"] ;
740 -> 886 ;
887 [label="duration <= 548.0\nentropy = 1.0\nsamples = 109\nvalue = [49, 60]"] ;
886 -> 887 ;
888 [label="loan_unknown <= 0.0\nentropy = 1.0\nsamples = 79\nvalue = [47, 32]"] ;
887 -> 888 ;
889 [label="euribor3m <= 0.7\nentropy = 0.9\nsamples = 73\nvalue = [47, 26]"] ;
888 -> 889 ;
890 [label="duration <= 253.5\nentropy = 0.7\nsamples = 11\nvalue = [2, 9]"] ;
889 -> 890 ;
891 [label="nr.employed <= 5013.1\nentropy = 0.9\nsamples = 3\nvalue = [2, 1]"] ;
890 -> 891 ;
892 [label="entropy = 0.0\nsamples = 2\nvalue = [2, 0]"] ;
891 -> 892 ;
893 [label="entropy = 0.0\nsamples = 1\nvalue = [0, 1]"] ;
891 -> 893 ;
894 [label="entropy = 0.0\nsamples = 8\nvalue = [0, 8]"] ;
890 -> 894 ;
895 [label="month_nov <= 0.1\nentropy = 0.8\nsamples = 62\nvalue = [45, 17]"] ;
889 -> 895 ;
896 [label="day_of_week_thu <= 0.5\nentropy = 0.8\nsamples = 59\nvalue = [45, 14]"] ;
895 -> 896 ;
897 [label="day_of_week_mon <= 0.5\nentropy = 0.9\nsamples = 47\nvalue = [33, 14]"] ;
896 -> 897 ;
898 [label="job_services <= 0.3\nentropy = 1.0\nsamples = 34\nvalue = [21, 13]"] ;
897 -> 898 ;
899 [label="euribor3m <= 0.9\nentropy = 0.9\nsamples = 31\nvalue = [21, 10]"] ;
898 -> 899 ;
900 [label="duration <= 367.5\nentropy = 0.6\nsamples = 15\nvalue = [13, 2]"] ;
899 -> 900 ;
901 [label="entropy = 0.0\nsamples = 8\nvalue = [8, 0]"] ;
900 -> 901 ;
902 [label="age <= 34.5\nentropy = 0.9\nsamples = 7\nvalue = [5, 2]"] ;
900 -> 902 ;
903 [label="month_oct <= 0.5\nentropy = 0.9\nsamples = 3\nvalue = [1, 2]"] ;
902 -> 903 ;
904 [label="entropy = 0.0\nsamples = 2\nvalue = [0, 2]"] ;
903 -> 904 ;
905 [label="entropy = 0.0\nsamples = 1\nvalue = [1, 0]"] ;
903 -> 905 ;
906 [label="entropy = 0.0\nsamples = 4\nvalue = [4, 0]"] ;
902 -> 906 ;
907 [label="euribor3m <= 1.0\nentropy = 1.0\nsamples = 16\nvalue = [8, 8]"] ;
899 -> 907 ;
908 [label="day_of_week_tue <= 0.5\nentropy = 0.6\nsamples = 7\nvalue = [1, 6]"] ;
907 -> 908 ;
909 [label="entropy = 0.0\nsamples = 6\nvalue = [0, 6]"] ;
908 -> 909 ;
910 [label="entropy = 0.0\nsamples = 1\nvalue = [1, 0]"] ;
908 -> 910 ;
911 [label="age <= 50.5\nentropy = 0.8\nsamples = 9\nvalue = [7, 2]"] ;
907 -> 911 ;
912 [label="entropy = 0.0\nsamples = 6\nvalue = [6, 0]"] ;
911 -> 912 ;
913 [label="job_management <= 0.5\nentropy = 0.9\nsamples = 3\nvalue = [1, 2]"] ;
911 -> 913 ;
914 [label="entropy = 0.0\nsamples = 2\nvalue = [0, 2]"] ;
913 -> 914 ;
915 [label="entropy = 0.0\nsamples = 1\nvalue = [1, 0]"] ;
913 -> 915 ;
916 [label="entropy = 0.0\nsamples = 3\nvalue = [0, 3]"] ;
898 -> 916 ;
917 [label="job_management <= 0.5\nentropy = 0.4\nsamples = 13\nvalue = [12, 1]"] ;
897 -> 917 ;
918 [label="entropy = 0.0\nsamples = 12\nvalue = [12, 0]"] ;
917 -> 918 ;
919 [label="entropy = 0.0\nsamples = 1\nvalue = [0, 1]"] ;
917 -> 919 ;
920 [label="entropy = 0.0\nsamples = 12\nvalue = [12, 0]"] ;
896 -> 920 ;
921 [label="entropy = 0.0\nsamples = 3\nvalue = [0, 3]"] ;
895 -> 921 ;
922 [label="entropy = 0.0\nsamples = 6\nvalue = [0, 6]"] ;
888 -> 922 ;
923 [label="day_of_week_wed <= 1.0\nentropy = 0.4\nsamples = 30\nvalue = [2, 28]"] ;
887 -> 923 ;
924 [label="entropy = 0.0\nsamples = 25\nvalue = [0, 25]"] ;
923 -> 924 ;
925 [label="duration <= 725.0\nentropy = 1.0\nsamples = 5\nvalue = [2, 3]"] ;
923 -> 925 ;
926 [label="month_apr <= 0.5\nentropy = 0.9\nsamples = 3\nvalue = [2, 1]"] ;
925 -> 926 ;
927 [label="entropy = 0.0\nsamples = 2\nvalue = [2, 0]"] ;
926 -> 927 ;
928 [label="entropy = 0.0\nsamples = 1\nvalue = [0, 1]"] ;
926 -> 928 ;
929 [label="entropy = 0.0\nsamples = 2\nvalue = [0, 2]"] ;
925 -> 929 ;
930 [label="contact_telephone <= 0.0\nentropy = 0.4\nsamples = 2476\nvalue = [219, 2257]"] ;
886 -> 930 ;
931 [label="job_admin. <= 0.0\nentropy = 0.5\nsamples = 2091\nvalue = [219, 1872]"] ;
930 -> 931 ;
932 [label="housing_no <= 1.0\nentropy = 0.6\nsamples = 975\nvalue = [161, 814]"] ;
931 -> 932 ;
933 [label="housing_no <= 0.0\nentropy = 0.5\nsamples = 692\nvalue = [80, 612]"] ;
932 -> 933 ;
934 [label="nr.employed <= 5008.6\nentropy = 0.7\nsamples = 418\nvalue = [80, 338]"] ;
933 -> 934 ;
935 [label="age <= 81.9\nentropy = 0.2\nsamples = 122\nvalue = [4, 118]"] ;
934 -> 935 ;
936 [label="job_housemaid <= 0.5\nentropy = 0.1\nsamples = 119\nvalue = [2, 117]"] ;
935 -> 936 ;
937 [label="job_blue-collar <= 0.9\nentropy = 0.1\nsamples = 118\nvalue = [1, 117]"] ;
936 -> 937 ;
938 [label="entropy = 0.0\nsamples = 113\nvalue = [0, 113]"] ;
937 -> 938 ;
939 [label="month_sep <= 0.5\nentropy = 0.7\nsamples = 5\nvalue = [1, 4]"] ;
937 -> 939 ;
940 [label="entropy = 0.0\nsamples = 4\nvalue = [0, 4]"] ;
939 -> 940 ;
941 [label="entropy = 0.0\nsamples = 1\nvalue = [1, 0]"] ;
939 -> 941 ;
942 [label="entropy = 0.0\nsamples = 1\nvalue = [1, 0]"] ;
936 -> 942 ;
943 [label="day_of_week_tue <= 0.5\nentropy = 0.9\nsamples = 3\nvalue = [2, 1]"] ;
935 -> 943 ;
944 [label="entropy = 0.0\nsamples = 2\nvalue = [2, 0]"] ;
943 -> 944 ;
945 [label="entropy = 0.0\nsamples = 1\nvalue = [0, 1]"] ;
943 -> 945 ;
946 [label="job_student <= 0.0\nentropy = 0.8\nsamples = 296\nvalue = [76, 220]"] ;
934 -> 946 ;
947 [label="education_basic <= 0.0\nentropy = 0.9\nsamples = 235\nvalue = [73, 162]"] ;
946 -> 947 ;
948 [label="job_retired <= 0.9\nentropy = 1.0\nsamples = 136\nvalue = [58, 78]"] ;
947 -> 948 ;
949 [label="month_sep <= 0.8\nentropy = 0.9\nsamples = 114\nvalue = [42, 72]"] ;
948 -> 949 ;
950 [label="month_jul <= 0.7\nentropy = 0.9\nsamples = 107\nvalue = [36, 71]"] ;
949 -> 950 ;
951 [label="month_mar <= 0.9\nentropy = 0.9\nsamples = 96\nvalue = [28, 68]"] ;
950 -> 951 ;
952 [label="day_of_week_fri <= 1.0\nentropy = 0.8\nsamples = 91\nvalue = [24, 67]"] ;
951 -> 952 ;
953 [label="age <= 35.0\nentropy = 0.7\nsamples = 74\nvalue = [15, 59]"] ;
952 -> 953 ;
954 [label="job_technician <= 1.0\nentropy = 0.4\nsamples = 34\nvalue = [3, 31]"] ;
953 -> 954 ;
955 [label="entropy = 0.0\nsamples = 21\nvalue = [0, 21]"] ;
954 -> 955 ;
956 [label="duration <= 225.5\nentropy = 0.8\nsamples = 13\nvalue = [3, 10]"] ;
954 -> 956 ;
957 [label="entropy = 0.0\nsamples = 1\nvalue = [1, 0]"] ;
956 -> 957 ;
958 [label="cons.price.idx <= 92.5\nentropy = 0.7\nsamples = 12\nvalue = [2, 10]"] ;
956 -> 958 ;
959 [label="day_of_week_wed <= 0.5\nentropy = 1.0\nsamples = 5\nvalue = [2, 3]"] ;
958 -> 959 ;
960 [label="duration <= 1129.0\nentropy = 0.9\nsamples = 3\nvalue = [2, 1]"] ;
959 -> 960 ;
961 [label="entropy = 0.0\nsamples = 2\nvalue = [2, 0]"] ;
960 -> 961 ;
962 [label="entropy = 0.0\nsamples = 1\nvalue = [0, 1]"] ;
960 -> 962 ;
963 [label="entropy = 0.0\nsamples = 2\nvalue = [0, 2]"] ;
959 -> 963 ;
964 [label="entropy = 0.0\nsamples = 7\nvalue = [0, 7]"] ;
958 -> 964 ;
965 [label="duration <= 285.5\nentropy = 0.9\nsamples = 40\nvalue = [12, 28]"] ;
953 -> 965 ;
966 [label="nr.employed <= 5046.9\nentropy = 0.9\nsamples = 7\nvalue = [5, 2]"] ;
965 -> 966 ;
967 [label="entropy = 0.0\nsamples = 2\nvalue = [0, 2]"] ;
966 -> 967 ;
968 [label="entropy = 0.0\nsamples = 5\nvalue = [5, 0]"] ;
966 -> 968 ;
969 [label="job_technician <= 0.2\nentropy = 0.7\nsamples = 33\nvalue = [7, 26]"] ;
965 -> 969 ;
970 [label="age <= 57.0\nentropy = 1.0\nsamples = 15\nvalue = [6, 9]"] ;
969 -> 970 ;
971 [label="campaign <= 1.5\nentropy = 1.0\nsamples = 10\nvalue = [6, 4]"] ;
970 -> 971 ;
972 [label="entropy = 0.0\nsamples = 5\nvalue = [5, 0]"] ;
971 -> 972 ;
973 [label="cons.price.idx <= 93.4\nentropy = 0.7\nsamples = 5\nvalue = [1, 4]"] ;
971 -> 973 ;
974 [label="entropy = 0.0\nsamples = 4\nvalue = [0, 4]"] ;
973 -> 974 ;
975 [label="entropy = 0.0\nsamples = 1\nvalue = [1, 0]"] ;
973 -> 975 ;
976 [label="entropy = 0.0\nsamples = 5\nvalue = [0, 5]"] ;
970 -> 976 ;
977 [label="month_oct <= 0.7\nentropy = 0.3\nsamples = 18\nvalue = [1, 17]"] ;
969 -> 977 ;
978 [label="entropy = 0.0\nsamples = 16\nvalue = [0, 16]"] ;
977 -> 978 ;
979 [label="campaign <= 1.5\nentropy = 1.0\nsamples = 2\nvalue = [1, 1]"] ;
977 -> 979 ;
980 [label="entropy = 0.0\nsamples = 1\nvalue = [0, 1]"] ;
979 -> 980 ;
981 [label="entropy = 0.0\nsamples = 1\nvalue = [1, 0]"] ;
979 -> 981 ;
982 [label="age <= 48.0\nentropy = 1.0\nsamples = 17\nvalue = [9, 8]"] ;
952 -> 982 ;
983 [label="age <= 31.5\nentropy = 0.9\nsamples = 14\nvalue = [9, 5]"] ;
982 -> 983 ;
984 [label="campaign <= 4.0\nentropy = 1.0\nsamples = 9\nvalue = [4, 5]"] ;
983 -> 984 ;
985 [label="job_management <= 0.5\nentropy = 0.7\nsamples = 6\nvalue = [1, 5]"] ;
984 -> 985 ;
986 [label="entropy = 0.0\nsamples = 5\nvalue = [0, 5]"] ;
985 -> 986 ;
987 [label="entropy = 0.0\nsamples = 1\nvalue = [1, 0]"] ;
985 -> 987 ;
988 [label="entropy = 0.0\nsamples = 3\nvalue = [3, 0]"] ;
984 -> 988 ;
989 [label="entropy = 0.0\nsamples = 5\nvalue = [5, 0]"] ;
983 -> 989 ;
990 [label="entropy = 0.0\nsamples = 3\nvalue = [0, 3]"] ;
982 -> 990 ;
991 [label="euribor3m <= 0.6\nentropy = 0.7\nsamples = 5\nvalue = [4, 1]"] ;
951 -> 991 ;
992 [label="entropy = 0.0\nsamples = 4\nvalue = [4, 0]"] ;
991 -> 992 ;
993 [label="entropy = 0.0\nsamples = 1\nvalue = [0, 1]"] ;
991 -> 993 ;
994 [label="job_entrepreneur <= 0.5\nentropy = 0.8\nsamples = 11\nvalue = [8, 3]"] ;
950 -> 994 ;
995 [label="campaign <= 3.5\nentropy = 0.5\nsamples = 9\nvalue = [8, 1]"] ;
994 -> 995 ;
996 [label="entropy = 0.0\nsamples = 8\nvalue = [8, 0]"] ;
995 -> 996 ;
997 [label="entropy = 0.0\nsamples = 1\nvalue = [0, 1]"] ;
995 -> 997 ;
998 [label="entropy = 0.0\nsamples = 2\nvalue = [0, 2]"] ;
994 -> 998 ;
999 [label="day_of_week_tue <= 0.5\nentropy = 0.6\nsamples = 7\nvalue = [6, 1]"] ;
949 -> 999 ;
1000 [label="entropy = 0.0\nsamples = 6\nvalue = [6, 0]"] ;
999 -> 1000 ;
1001 [label="entropy = 0.0\nsamples = 1\nvalue = [0, 1]"] ;
999 -> 1001 ;
1002 [label="education_high.school <= 0.5\nentropy = 0.8\nsamples = 22\nvalue = [16, 6]"] ;
948 -> 1002 ;
1003 [label="euribor3m <= 1.3\nentropy = 0.5\nsamples = 16\nvalue = [14, 2]"] ;
1002 -> 1003 ;
1004 [label="duration <= 225.5\nentropy = 0.4\nsamples = 15\nvalue = [14, 1]"] ;
1003 -> 1004 ;
1005 [label="entropy = 0.0\nsamples = 1\nvalue = [0, 1]"] ;
1004 -> 1005 ;
1006 [label="entropy = 0.0\nsamples = 14\nvalue = [14, 0]"] ;
1004 -> 1006 ;
1007 [label="entropy = 0.0\nsamples = 1\nvalue = [0, 1]"] ;
1003 -> 1007 ;
1008 [label="nr.employed <= 5020.5\nentropy = 0.9\nsamples = 6\nvalue = [2, 4]"] ;
1002 -> 1008 ;
1009 [label="age <= 59.0\nentropy = 0.9\nsamples = 3\nvalue = [2, 1]"] ;
1008 -> 1009 ;
1010 [label="entropy = 0.0\nsamples = 1\nvalue = [0, 1]"] ;
1009 -> 1010 ;
1011 [label="entropy = 0.0\nsamples = 2\nvalue = [2, 0]"] ;
1009 -> 1011 ;
1012 [label="entropy = 0.0\nsamples = 3\nvalue = [0, 3]"] ;
1008 -> 1012 ;
1013 [label="education_basic <= 1.0\nentropy = 0.6\nsamples = 99\nvalue = [15, 84]"] ;
947 -> 1013 ;
1014 [label="entropy = 0.0\nsamples = 47\nvalue = [0, 47]"] ;
1013 -> 1014 ;
1015 [label="day_of_week_wed <= 0.5\nentropy = 0.9\nsamples = 52\nvalue = [15, 37]"] ;
1013 -> 1015 ;
1016 [label="cons.conf.idx <= -29.9\nentropy = 0.7\nsamples = 44\nvalue = [8, 36]"] ;
1015 -> 1016 ;
1017 [label="age <= 59.5\nentropy = 0.9\nsamples = 28\nvalue = [8, 20]"] ;
1016 -> 1017 ;
1018 [label="duration <= 256.0\nentropy = 0.3\nsamples = 16\nvalue = [1, 15]"] ;
1017 -> 1018 ;
1019 [label="day_of_week_tue <= 0.5\nentropy = 0.8\nsamples = 4\nvalue = [1, 3]"] ;
1018 -> 1019 ;
1020 [label="entropy = 0.0\nsamples = 3\nvalue = [0, 3]"] ;
1019 -> 1020 ;
1021 [label="entropy = 0.0\nsamples = 1\nvalue = [1, 0]"] ;
1019 -> 1021 ;
1022 [label="entropy = 0.0\nsamples = 12\nvalue = [0, 12]"] ;
1018 -> 1022 ;
1023 [label="duration <= 490.3\nentropy = 1.0\nsamples = 12\nvalue = [7, 5]"] ;
1017 -> 1023 ;
1024 [label="loan_no <= 0.9\nentropy = 0.8\nsamples = 9\nvalue = [7, 2]"] ;
1023 -> 1024 ;
1025 [label="entropy = 0.0\nsamples = 2\nvalue = [0, 2]"] ;
1024 -> 1025 ;
1026 [label="entropy = 0.0\nsamples = 7\nvalue = [7, 0]"] ;
1024 -> 1026 ;
1027 [label="entropy = 0.0\nsamples = 3\nvalue = [0, 3]"] ;
1023 -> 1027 ;
1028 [label="entropy = 0.0\nsamples = 16\nvalue = [0, 16]"] ;
1016 -> 1028 ;
1029 [label="month_apr <= 0.5\nentropy = 0.5\nsamples = 8\nvalue = [7, 1]"] ;
1015 -> 1029 ;
1030 [label="entropy = 0.0\nsamples = 6\nvalue = [6, 0]"] ;
1029 -> 1030 ;
1031 [label="age <= 73.0\nentropy = 1.0\nsamples = 2\nvalue = [1, 1]"] ;
1029 -> 1031 ;
1032 [label="entropy = 0.0\nsamples = 1\nvalue = [0, 1]"] ;
1031 -> 1032 ;
1033 [label="entropy = 0.0\nsamples = 1\nvalue = [1, 0]"] ;
1031 -> 1033 ;
1034 [label="job_student <= 1.0\nentropy = 0.3\nsamples = 61\nvalue = [3, 58]"] ;
946 -> 1034 ;
1035 [label="entropy = 0.0\nsamples = 42\nvalue = [0, 42]"] ;
1034 -> 1035 ;
1036 [label="default_no <= 0.5\nentropy = 0.6\nsamples = 19\nvalue = [3, 16]"] ;
1034 -> 1036 ;
1037 [label="entropy = 0.0\nsamples = 1\nvalue = [1, 0]"] ;
1036 -> 1037 ;
1038 [label="duration <= 428.5\nentropy = 0.5\nsamples = 18\nvalue = [2, 16]"] ;
1036 -> 1038 ;
1039 [label="entropy = 0.0\nsamples = 10\nvalue = [0, 10]"] ;
1038 -> 1039 ;
1040 [label="duration <= 451.0\nentropy = 0.8\nsamples = 8\nvalue = [2, 6]"] ;
1038 -> 1040 ;
1041 [label="entropy = 0.0\nsamples = 2\nvalue = [2, 0]"] ;
1040 -> 1041 ;
1042 [label="entropy = 0.0\nsamples = 6\nvalue = [0, 6]"] ;
1040 -> 1042 ;
1043 [label="entropy = 0.0\nsamples = 274\nvalue = [0, 274]"] ;
933 -> 1043 ;
1044 [label="duration <= 331.9\nentropy = 0.9\nsamples = 283\nvalue = [81, 202]"] ;
932 -> 1044 ;
1045 [label="month_oct <= 0.9\nentropy = 1.0\nsamples = 111\nvalue = [50, 61]"] ;
1044 -> 1045 ;
1046 [label="job_housemaid <= 0.0\nentropy = 1.0\nsamples = 99\nvalue = [39, 60]"] ;
1045 -> 1046 ;
1047 [label="month_oct <= 0.0\nentropy = 1.0\nsamples = 89\nvalue = [39, 50]"] ;
1046 -> 1047 ;
1048 [label="job_services <= 0.0\nentropy = 1.0\nsamples = 82\nvalue = [39, 43]"] ;
1047 -> 1048 ;
1049 [label="month_aug <= 0.0\nentropy = 1.0\nsamples = 75\nvalue = [39, 36]"] ;
1048 -> 1049 ;
1050 [label="euribor3m <= 0.7\nentropy = 0.9\nsamples = 45\nvalue = [30, 15]"] ;
1049 -> 1050 ;
1051 [label="age <= 29.5\nentropy = 0.9\nsamples = 9\nvalue = [3, 6]"] ;
1050 -> 1051 ;
1052 [label="entropy = 0.0\nsamples = 3\nvalue = [3, 0]"] ;
1051 -> 1052 ;
1053 [label="entropy = 0.0\nsamples = 6\nvalue = [0, 6]"] ;
1051 -> 1053 ;
1054 [label="education_unknown <= 0.5\nentropy = 0.8\nsamples = 36\nvalue = [27, 9]"] ;
1050 -> 1054 ;
1055 [label="age <= 46.5\nentropy = 0.7\nsamples = 34\nvalue = [27, 7]"] ;
1054 -> 1055 ;
1056 [label="education_professional.course <= 0.5\nentropy = 0.9\nsamples = 19\nvalue = [13, 6]"] ;
1055 -> 1056 ;
1057 [label="education_high.school <= 0.5\nentropy = 0.8\nsamples = 17\nvalue = [13, 4]"] ;
1056 -> 1057 ;
1058 [label="job_management <= 0.5\nentropy = 0.9\nsamples = 12\nvalue = [8, 4]"] ;
1057 -> 1058 ;
1059 [label="duration <= 285.0\nentropy = 1.0\nsamples = 9\nvalue = [5, 4]"] ;
1058 -> 1059 ;
1060 [label="emp.var.rate <= -2.0\nentropy = 0.9\nsamples = 7\nvalue = [5, 2]"] ;
1059 -> 1060 ;
1061 [label="entropy = 0.0\nsamples = 4\nvalue = [4, 0]"] ;
1060 -> 1061 ;
1062 [label="duration <= 249.5\nentropy = 0.9\nsamples = 3\nvalue = [1, 2]"] ;
1060 -> 1062 ;
1063 [label="entropy = 0.0\nsamples = 2\nvalue = [0, 2]"] ;
1062 -> 1063 ;
1064 [label="entropy = 0.0\nsamples = 1\nvalue = [1, 0]"] ;
1062 -> 1064 ;
1065 [label="entropy = 0.0\nsamples = 2\nvalue = [0, 2]"] ;
1059 -> 1065 ;
1066 [label="entropy = 0.0\nsamples = 3\nvalue = [3, 0]"] ;
1058 -> 1066 ;
1067 [label="entropy = 0.0\nsamples = 5\nvalue = [5, 0]"] ;
1057 -> 1067 ;
1068 [label="entropy = 0.0\nsamples = 2\nvalue = [0, 2]"] ;
1056 -> 1068 ;
1069 [label="marital_married <= 0.5\nentropy = 0.4\nsamples = 15\nvalue = [14, 1]"] ;
1055 -> 1069 ;
1070 [label="cons.conf.idx <= -34.8\nentropy = 1.0\nsamples = 2\nvalue = [1, 1]"] ;
1069 -> 1070 ;
1071 [label="entropy = 0.0\nsamples = 1\nvalue = [0, 1]"] ;
1070 -> 1071 ;
1072 [label="entropy = 0.0\nsamples = 1\nvalue = [1, 0]"] ;
1070 -> 1072 ;
1073 [label="entropy = 0.0\nsamples = 13\nvalue = [13, 0]"] ;
1069 -> 1073 ;
1074 [label="entropy = 0.0\nsamples = 2\nvalue = [0, 2]"] ;
1054 -> 1074 ;
1075 [label="age <= 67.5\nentropy = 0.9\nsamples = 30\nvalue = [9, 21]"] ;
1049 -> 1075 ;
1076 [label="marital_single <= 1.0\nentropy = 0.7\nsamples = 26\nvalue = [5, 21]"] ;
1075 -> 1076 ;
1077 [label="entropy = 0.0\nsamples = 13\nvalue = [0, 13]"] ;
1076 -> 1077 ;
1078 [label="day_of_week_fri <= 0.9\nentropy = 1.0\nsamples = 13\nvalue = [5, 8]"] ;
1076 -> 1078 ;
1079 [label="day_of_week_mon <= 1.0\nentropy = 0.5\nsamples = 9\nvalue = [1, 8]"] ;
1078 -> 1079 ;
1080 [label="entropy = 0.0\nsamples = 8\nvalue = [0, 8]"] ;
1079 -> 1080 ;
1081 [label="entropy = 0.0\nsamples = 1\nvalue = [1, 0]"] ;
1079 -> 1081 ;
1082 [label="entropy = 0.0\nsamples = 4\nvalue = [4, 0]"] ;
1078 -> 1082 ;
1083 [label="entropy = 0.0\nsamples = 4\nvalue = [4, 0]"] ;
1075 -> 1083 ;
1084 [label="entropy = 0.0\nsamples = 7\nvalue = [0, 7]"] ;
1048 -> 1084 ;
1085 [label="entropy = 0.0\nsamples = 7\nvalue = [0, 7]"] ;
1047 -> 1085 ;
1086 [label="entropy = 0.0\nsamples = 10\nvalue = [0, 10]"] ;
1046 -> 1086 ;
1087 [label="duration <= 284.5\nentropy = 0.4\nsamples = 12\nvalue = [11, 1]"] ;
1045 -> 1087 ;
1088 [label="entropy = 0.0\nsamples = 11\nvalue = [11, 0]"] ;
1087 -> 1088 ;
1089 [label="entropy = 0.0\nsamples = 1\nvalue = [0, 1]"] ;
1087 -> 1089 ;
1090 [label="age <= 37.5\nentropy = 0.7\nsamples = 172\nvalue = [31, 141]"] ;
1044 -> 1090 ;
1091 [label="cons.price.idx <= 93.8\nentropy = 1.0\nsamples = 54\nvalue = [20, 34]"] ;
1090 -> 1091 ;
1092 [label="emp.var.rate <= -3.1\nentropy = 1.0\nsamples = 35\nvalue = [19, 16]"] ;
1091 -> 1092 ;
1093 [label="euribor3m <= 0.7\nentropy = 0.8\nsamples = 12\nvalue = [3, 9]"] ;
1092 -> 1093 ;
1094 [label="entropy = 0.0\nsamples = 8\nvalue = [0, 8]"] ;
1093 -> 1094 ;
1095 [label="job_student <= 0.5\nentropy = 0.8\nsamples = 4\nvalue = [3, 1]"] ;
1093 -> 1095 ;
1096 [label="entropy = 0.0\nsamples = 3\nvalue = [3, 0]"] ;
1095 -> 1096 ;
1097 [label="entropy = 0.0\nsamples = 1\nvalue = [0, 1]"] ;
1095 -> 1097 ;
1098 [label="duration <= 641.5\nentropy = 0.9\nsamples = 23\nvalue = [16, 7]"] ;
1092 -> 1098 ;
1099 [label="campaign <= 1.5\nentropy = 0.7\nsamples = 19\nvalue = [15, 4]"] ;
1098 -> 1099 ;
1100 [label="day_of_week_thu <= 0.5\nentropy = 0.9\nsamples = 12\nvalue = [8, 4]"] ;
1099 -> 1100 ;
1101 [label="age <= 22.5\nentropy = 0.7\nsamples = 10\nvalue = [8, 2]"] ;
1100 -> 1101 ;
1102 [label="entropy = 0.0\nsamples = 1\nvalue = [0, 1]"] ;
1101 -> 1102 ;
1103 [label="day_of_week_tue <= 0.5\nentropy = 0.5\nsamples = 9\nvalue = [8, 1]"] ;
1101 -> 1103 ;
1104 [label="entropy = 0.0\nsamples = 7\nvalue = [7, 0]"] ;
1103 -> 1104 ;
1105 [label="education_professional.course <= 0.5\nentropy = 1.0\nsamples = 2\nvalue = [1, 1]"] ;
1103 -> 1105 ;
1106 [label="entropy = 0.0\nsamples = 1\nvalue = [1, 0]"] ;
1105 -> 1106 ;
1107 [label="entropy = 0.0\nsamples = 1\nvalue = [0, 1]"] ;
1105 -> 1107 ;
1108 [label="entropy = 0.0\nsamples = 2\nvalue = [0, 2]"] ;
1100 -> 1108 ;
1109 [label="entropy = 0.0\nsamples = 7\nvalue = [7, 0]"] ;
1099 -> 1109 ;
1110 [label="duration <= 1089.0\nentropy = 0.8\nsamples = 4\nvalue = [1, 3]"] ;
1098 -> 1110 ;
1111 [label="entropy = 0.0\nsamples = 3\nvalue = [0, 3]"] ;
1110 -> 1111 ;
1112 [label="entropy = 0.0\nsamples = 1\nvalue = [1, 0]"] ;
1110 -> 1112 ;
1113 [label="job_technician <= 1.0\nentropy = 0.3\nsamples = 19\nvalue = [1, 18]"] ;
1091 -> 1113 ;
1114 [label="entropy = 0.0\nsamples = 17\nvalue = [0, 17]"] ;
1113 -> 1114 ;
1115 [label="month_jul <= 0.5\nentropy = 1.0\nsamples = 2\nvalue = [1, 1]"] ;
1113 -> 1115 ;
1116 [label="entropy = 0.0\nsamples = 1\nvalue = [1, 0]"] ;
1115 -> 1116 ;
1117 [label="entropy = 0.0\nsamples = 1\nvalue = [0, 1]"] ;
1115 -> 1117 ;
1118 [label="day_of_week_tue <= 1.0\nentropy = 0.4\nsamples = 118\nvalue = [11, 107]"] ;
1090 -> 1118 ;
1119 [label="job_blue-collar <= 1.0\nentropy = 0.3\nsamples = 99\nvalue = [5, 94]"] ;
1118 -> 1119 ;
1120 [label="job_retired <= 1.0\nentropy = 0.2\nsamples = 94\nvalue = [3, 91]"] ;
1119 -> 1120 ;
1121 [label="entropy = 0.0\nsamples = 60\nvalue = [0, 60]"] ;
1120 -> 1121 ;
1122 [label="cons.conf.idx <= -40.3\nentropy = 0.4\nsamples = 34\nvalue = [3, 31]"] ;
1120 -> 1122 ;
1123 [label="duration <= 694.5\nentropy = 0.9\nsamples = 3\nvalue = [2, 1]"] ;
1122 -> 1123 ;
1124 [label="entropy = 0.0\nsamples = 2\nvalue = [2, 0]"] ;
1123 -> 1124 ;
1125 [label="entropy = 0.0\nsamples = 1\nvalue = [0, 1]"] ;
1123 -> 1125 ;
1126 [label="marital_divorced <= 0.9\nentropy = 0.2\nsamples = 31\nvalue = [1, 30]"] ;
1122 -> 1126 ;
1127 [label="entropy = 0.0\nsamples = 29\nvalue = [0, 29]"] ;
1126 -> 1127 ;
1128 [label="age <= 76.5\nentropy = 1.0\nsamples = 2\nvalue = [1, 1]"] ;
1126 -> 1128 ;
1129 [label="entropy = 0.0\nsamples = 1\nvalue = [1, 0]"] ;
1128 -> 1129 ;
1130 [label="entropy = 0.0\nsamples = 1\nvalue = [0, 1]"] ;
1128 -> 1130 ;
1131 [label="euribor3m <= 0.9\nentropy = 1.0\nsamples = 5\nvalue = [2, 3]"] ;
1119 -> 1131 ;
1132 [label="entropy = 0.0\nsamples = 2\nvalue = [2, 0]"] ;
1131 -> 1132 ;
1133 [label="entropy = 0.0\nsamples = 3\nvalue = [0, 3]"] ;
1131 -> 1133 ;
1134 [label="duration <= 362.5\nentropy = 0.9\nsamples = 19\nvalue = [6, 13]"] ;
1118 -> 1134 ;
1135 [label="entropy = 0.0\nsamples = 4\nvalue = [0, 4]"] ;
1134 -> 1135 ;
1136 [label="month_aug <= 0.0\nentropy = 1.0\nsamples = 15\nvalue = [6, 9]"] ;
1134 -> 1136 ;
1137 [label="duration <= 396.0\nentropy = 0.7\nsamples = 5\nvalue = [4, 1]"] ;
1136 -> 1137 ;
1138 [label="entropy = 0.0\nsamples = 1\nvalue = [0, 1]"] ;
1137 -> 1138 ;
1139 [label="entropy = 0.0\nsamples = 4\nvalue = [4, 0]"] ;
1137 -> 1139 ;
1140 [label="job_retired <= 0.9\nentropy = 0.7\nsamples = 10\nvalue = [2, 8]"] ;
1136 -> 1140 ;
1141 [label="entropy = 0.0\nsamples = 6\nvalue = [0, 6]"] ;
1140 -> 1141 ;
1142 [label="cons.conf.idx <= -34.8\nentropy = 1.0\nsamples = 4\nvalue = [2, 2]"] ;
1140 -> 1142 ;
1143 [label="entropy = 0.0\nsamples = 2\nvalue = [0, 2]"] ;
1142 -> 1143 ;
1144 [label="entropy = 0.0\nsamples = 2\nvalue = [2, 0]"] ;
1142 -> 1144 ;
1145 [label="job_admin. <= 1.0\nentropy = 0.3\nsamples = 1116\nvalue = [58, 1058]"] ;
931 -> 1145 ;
1146 [label="entropy = 0.0\nsamples = 718\nvalue = [0, 718]"] ;
1145 -> 1146 ;
1147 [label="day_of_week_mon <= 1.0\nentropy = 0.6\nsamples = 398\nvalue = [58, 340]"] ;
1145 -> 1147 ;
1148 [label="day_of_week_mon <= 0.0\nentropy = 0.5\nsamples = 367\nvalue = [45, 322]"] ;
1147 -> 1148 ;
1149 [label="day_of_week_wed <= 1.0\nentropy = 0.6\nsamples = 295\nvalue = [45, 250]"] ;
1148 -> 1149 ;
1150 [label="cons.price.idx <= 92.2\nentropy = 0.5\nsamples = 261\nvalue = [32, 229]"] ;
1149 -> 1150 ;
1151 [label="euribor3m <= 0.9\nentropy = 1.0\nsamples = 21\nvalue = [10, 11]"] ;
1150 -> 1151 ;
1152 [label="education_university.degree <= 0.1\nentropy = 0.8\nsamples = 13\nvalue = [3, 10]"] ;
1151 -> 1152 ;
1153 [label="duration <= 424.0\nentropy = 1.0\nsamples = 5\nvalue = [3, 2]"] ;
1152 -> 1153 ;
1154 [label="entropy = 0.0\nsamples = 3\nvalue = [3, 0]"] ;
1153 -> 1154 ;
1155 [label="entropy = 0.0\nsamples = 2\nvalue = [0, 2]"] ;
1153 -> 1155 ;
1156 [label="entropy = 0.0\nsamples = 8\nvalue = [0, 8]"] ;
1152 -> 1156 ;
1157 [label="duration <= 273.5\nentropy = 0.5\nsamples = 8\nvalue = [7, 1]"] ;
1151 -> 1157 ;
1158 [label="entropy = 0.0\nsamples = 1\nvalue = [0, 1]"] ;
1157 -> 1158 ;
1159 [label="entropy = 0.0\nsamples = 7\nvalue = [7, 0]"] ;
1157 -> 1159 ;
1160 [label="euribor3m <= 1.3\nentropy = 0.4\nsamples = 240\nvalue = [22, 218]"] ;
1150 -> 1160 ;
1161 [label="euribor3m <= 0.7\nentropy = 0.4\nsamples = 229\nvalue = [16, 213]"] ;
1160 -> 1161 ;
1162 [label="duration <= 292.1\nentropy = 0.7\nsamples = 58\nvalue = [10, 48]"] ;
1161 -> 1162 ;
1163 [label="marital_single <= 0.8\nentropy = 1.0\nsamples = 21\nvalue = [8, 13]"] ;
1162 -> 1163 ;
1164 [label="age <= 43.5\nentropy = 0.7\nsamples = 15\nvalue = [3, 12]"] ;
1163 -> 1164 ;
1165 [label="entropy = 0.0\nsamples = 10\nvalue = [0, 10]"] ;
1164 -> 1165 ;
1166 [label="euribor3m <= 0.7\nentropy = 1.0\nsamples = 5\nvalue = [3, 2]"] ;
1164 -> 1166 ;
1167 [label="entropy = 0.0\nsamples = 3\nvalue = [3, 0]"] ;
1166 -> 1167 ;
1168 [label="entropy = 0.0\nsamples = 2\nvalue = [0, 2]"] ;
1166 -> 1168 ;
1169 [label="age <= 37.0\nentropy = 0.7\nsamples = 6\nvalue = [5, 1]"] ;
1163 -> 1169 ;
1170 [label="entropy = 0.0\nsamples = 5\nvalue = [5, 0]"] ;
1169 -> 1170 ;
1171 [label="entropy = 0.0\nsamples = 1\nvalue = [0, 1]"] ;
1169 -> 1171 ;
1172 [label="age <= 30.1\nentropy = 0.3\nsamples = 37\nvalue = [2, 35]"] ;
1162 -> 1172 ;
1173 [label="day_of_week_tue <= 1.0\nentropy = 0.9\nsamples = 6\nvalue = [2, 4]"] ;
1172 -> 1173 ;
1174 [label="entropy = 0.0\nsamples = 4\nvalue = [0, 4]"] ;
1173 -> 1174 ;
1175 [label="entropy = 0.0\nsamples = 2\nvalue = [2, 0]"] ;
1173 -> 1175 ;
1176 [label="entropy = 0.0\nsamples = 31\nvalue = [0, 31]"] ;
1172 -> 1176 ;
1177 [label="marital_divorced <= 1.0\nentropy = 0.2\nsamples = 171\nvalue = [6, 165]"] ;
1161 -> 1177 ;
1178 [label="cons.conf.idx <= -40.7\nentropy = 0.1\nsamples = 166\nvalue = [3, 163]"] ;
1177 -> 1178 ;
1179 [label="duration <= 220.0\nentropy = 0.3\nsamples = 51\nvalue = [3, 48]"] ;
1178 -> 1179 ;
1180 [label="entropy = 0.0\nsamples = 1\nvalue = [1, 0]"] ;
1179 -> 1180 ;
1181 [label="age <= 36.0\nentropy = 0.2\nsamples = 50\nvalue = [2, 48]"] ;
1179 -> 1181 ;
1182 [label="entropy = 0.0\nsamples = 40\nvalue = [0, 40]"] ;
1181 -> 1182 ;
1183 [label="day_of_week_tue <= 0.5\nentropy = 0.7\nsamples = 10\nvalue = [2, 8]"] ;
1181 -> 1183 ;
1184 [label="marital_single <= 0.6\nentropy = 0.5\nsamples = 9\nvalue = [1, 8]"] ;
1183 -> 1184 ;
1185 [label="entropy = 0.0\nsamples = 7\nvalue = [0, 7]"] ;
1184 -> 1185 ;
1186 [label="duration <= 415.5\nentropy = 1.0\nsamples = 2\nvalue = [1, 1]"] ;
1184 -> 1186 ;
1187 [label="entropy = 0.0\nsamples = 1\nvalue = [1, 0]"] ;
1186 -> 1187 ;
1188 [label="entropy = 0.0\nsamples = 1\nvalue = [0, 1]"] ;
1186 -> 1188 ;
1189 [label="entropy = 0.0\nsamples = 1\nvalue = [1, 0]"] ;
1183 -> 1189 ;
1190 [label="entropy = 0.0\nsamples = 115\nvalue = [0, 115]"] ;
1178 -> 1190 ;
